{"type":"network","input_size":18,"output_size":3,"layers":[{"type":"layer","input_size":18,"output_size":16,"transfer":"relu","nodes":[{"type":"node","weights":[1.0755879878997803,0.1223454624414444,0.71930330991745,0.7438988089561462,0.05622318759560585,0.6819964051246643,0.9070178866386414,-0.2756443917751312,1.02105712890625,-0.16016195714473725,0.34008052945137026,-0.19597890973091126,0.5625526905059815,0.28279611468315127,0.34553438425064089,0.7976459264755249,0.9606518745422363,0.35621699690818789,0.5868000984191895]},{"type":"node","weights":[0.9358490705490112,0.10696525126695633,0.47113484144210818,0.949700653553009,0.4026774764060974,1.1004692316055298,0.11341485381126404,0.08544152230024338,0.5300201177597046,0.3440779745578766,0.31154921650886538,-0.21564731001853944,-0.007499768864363432,0.4403782784938812,-0.4918915033340454,1.0557887554168702,0.11955522745847702,0.9914352297782898,0.5219132900238037]},{"type":"node","weights":[0.6713997721672058,0.47609633207321169,0.48726674914360049,0.8112297654151917,-0.4116765856742859,0.10339725017547608,0.8202031254768372,-0.39881864190101626,0.7916858792304993,0.07600048184394837,0.5458725094795227,-0.14621326327323914,0.681922972202301,0.4339143633842468,0.10986218601465225,0.6228735446929932,-0.12507204711437226,0.28396889567375185,-0.06745735555887222]},{"type":"node","weights":[0.5295707583427429,-0.17795957624912263,0.4380864202976227,0.3999684751033783,0.5589731931686401,-0.09816254675388336,0.34453481435775759,-0.3298168480396271,0.7099341750144959,-0.41788119077682497,0.2901270389556885,-0.398349791765213,0.7512909173965454,0.47436511516571047,0.40412846207618716,0.3882467746734619,-0.3491019010543823,0.23966084420681,-0.1559050977230072]},{"type":"node","weights":[0.629516065120697,0.17348448932170869,0.11011698842048645,0.24001742899417878,-0.0460040420293808,-0.09733156859874726,0.779396653175354,-0.7207921147346497,0.13083253800868989,-0.07076723873615265,0.7166929841041565,-0.8280438184738159,-0.11507214605808258,0.46659043431282046,-0.4480128586292267,0.47253844141960146,-0.234297975897789,0.11573358625173569,-0.43699684739112856]},{"type":"node","weights":[0.7810973525047302,0.6418962478637695,0.965461254119873,0.5679541826248169,0.8313743472099304,0.01838027499616146,0.995505154132843,0.024387944489717485,0.08936509490013123,0.3295784592628479,0.6687901616096497,-0.15374891459941865,0.5898861885070801,0.14613226056098939,0.15273462235927583,0.6347521543502808,0.12963716685771943,0.9693349599838257,-0.019155386835336686]},{"type":"node","weights":[0.012817651964724064,0.9504175782203674,0.09706109017133713,1.0348970890045167,-0.647081732749939,0.5819261074066162,0.49932190775871279,0.67828369140625,-0.15622001886367799,0.6309995651245117,0.11191093176603317,0.7934759259223938,0.2879696786403656,0.6752191185951233,0.052509721368551257,0.6660767197608948,0.07264665514230728,0.8145924806594849,0.2631511390209198]},{"type":"node","weights":[0.16467592120170594,-0.13606727123260499,0.9620332717895508,-0.03870866447687149,-0.2455729842185974,0.06578806787729263,0.46087297797203066,0.31433388590812685,0.8160228133201599,-0.17256538569927216,0.118348628282547,0.2958618700504303,0.16050952672958375,0.014083362184464932,-0.6689956784248352,0.8501719832420349,-0.4291329085826874,0.19334013760089875,0.19270165264606477]},{"type":"node","weights":[0.17080248892307282,0.7903054356575012,0.1950143426656723,0.6717643737792969,0.30389806628227236,0.5319304466247559,0.6291640996932983,0.2646128833293915,0.2921714186668396,-0.5240036845207214,0.7881288528442383,0.12837298214435578,0.38139256834983828,0.6991516351699829,-0.11710277944803238,0.8748830556869507,0.27281907200813296,0.6826687455177307,-0.5440433621406555]},{"type":"node","weights":[-0.06198327615857124,0.9232594966888428,-0.09394986182451248,0.7904675602912903,-0.22271350026130677,0.35183924436569216,-0.2631256580352783,-0.08551348745822907,0.2227572351694107,-0.23671282827854157,-0.05839729681611061,-0.27316814661026,0.12696973979473115,0.6166815161705017,-0.19701051712036134,0.6489304900169373,-0.43938395380973818,0.8050258755683899,0.8655593395233154]},{"type":"node","weights":[0.16962063312530518,-0.4626229703426361,0.20844796299934388,0.2742754817008972,-0.3314738869667053,0.367891788482666,0.170855313539505,-0.45993781089782717,-0.3182399272918701,0.26718568801879885,-0.21704544126987458,0.4841233193874359,0.39611536264419558,0.2977280020713806,-0.4605957269668579,0.5216711759567261,-0.3714829385280609,0.5968859195709229,-0.882906436920166]},{"type":"node","weights":[0.44443079829216006,0.3610301911830902,0.7288934588432312,0.22918583452701569,-0.16272646188735963,0.4204549789428711,0.46032243967056277,0.04814531281590462,0.768460750579834,-0.0502048060297966,1.1378806829452515,-0.23102512955665589,0.6044729948043823,-0.1688554435968399,0.5723775029182434,-0.160903662443161,0.10264722257852555,0.6467706561088562,-0.4349491000175476]},{"type":"node","weights":[-0.17304585874080659,0.47300460934638979,0.5376197695732117,0.24836906790733338,-0.16488821804523469,0.6139093637466431,0.921436071395874,-0.026118773967027665,0.05438625067472458,0.2984428405761719,0.11021141707897186,0.17007729411125184,-0.058954715728759769,0.5281913876533508,0.3597566485404968,0.7248931527137756,-0.6774342656135559,0.41704675555229189,0.3612670302391052]},{"type":"node","weights":[0.7048491835594177,0.6654699444770813,0.6289170980453491,0.6680107116699219,-0.3383737802505493,0.03343489393591881,0.4091217815876007,-0.32750073075294497,0.7631313800811768,-0.5280757546424866,-0.01956891268491745,0.008964546956121922,0.3837392330169678,0.2839803397655487,0.17912860214710236,0.6954729557037354,-0.4090726971626282,0.17268453538417817,0.11881424486637116]},{"type":"node","weights":[0.19842450320720673,0.11906914412975311,0.1375664621591568,0.45508912205696108,-0.775650143623352,0.9467822909355164,0.5251907110214233,0.05237242206931114,0.137546569108963,0.07029783725738526,0.07845255732536316,-0.031034579500555993,-0.12029606848955155,0.6757445931434631,0.17501479387283326,0.6690438985824585,0.2059839367866516,0.5065871477127075,-0.43687939643859866]},{"type":"node","weights":[0.3419857621192932,0.3036888539791107,0.3460877239704132,0.2380053699016571,0.04553493484854698,-0.08858993649482727,0.7859473824501038,-0.3549760580062866,0.09779463708400727,-0.40437233448028567,0.2501271963119507,-0.35385632514953616,0.4998447000980377,0.1369324028491974,0.4649913012981415,-0.0791950449347496,0.6914920806884766,-0.09449867904186249,-0.06377209722995758]}]},{"type":"layer","input_size":16,"output_size":16,"transfer":"relu","nodes":[{"type":"node","weights":[0.33128035068511965,0.004014467820525169,0.09924664348363877,-0.3655126690864563,0.7022245526313782,-0.36570969223976138,0.4422593116760254,0.15383166074752809,0.015838623046875,0.6397546529769898,0.5211000442504883,-0.3858318030834198,-0.5146778225898743,-0.48752909898757937,-0.4786025285720825,-0.19592896103858949,1.2489873170852662]},{"type":"node","weights":[0.33949750661849978,-0.20438465476036073,-0.3979308307170868,-0.28012174367904665,0.36783164739608767,-0.6352856755256653,0.08174844086170197,-0.24270367622375489,-0.23561479151248933,-0.050049908459186557,0.6048448085784912,0.38954082131385805,0.1812245100736618,0.39591699838638308,0.6995918154716492,-0.013279587030410767,0.5806441307067871]},{"type":"node","weights":[-0.18610426783561707,-0.0759318619966507,-0.09845650941133499,0.07320341467857361,0.17867039144039155,-0.5201367735862732,0.3304688632488251,-0.1478792428970337,-0.48493698239326479,-0.04452802985906601,-0.3031207323074341,0.5025964379310608,-0.11842120438814163,0.4019301235675812,0.29268723726272585,0.028161074966192247,0.6388423442840576]},{"type":"node","weights":[-0.826369047164917,0.06881096214056015,-0.31866124272346499,0.1515752673149109,0.03516776114702225,-0.021075448021292688,0.7393165230751038,0.14377278089523316,-0.291626513004303,0.6203625202178955,0.2611095607280731,-0.2232254445552826,0.547472357749939,0.28641244769096377,0.013338937424123288,-0.4951338768005371,0.6205275654792786]},{"type":"node","weights":[-0.3072341978549957,-0.40107840299606326,0.0772019624710083,0.3606787621974945,0.4265024662017822,-0.03190082684159279,-0.5606821775436401,-0.08731336891651154,0.3035452365875244,-0.004586453083902597,0.48628631234169009,-0.22652310132980348,-0.02287958189845085,0.3880840837955475,0.09672093391418457,0.1248241662979126,0.2566067576408386]},{"type":"node","weights":[0.07280226796865463,0.25011664628982546,-0.4403073489665985,-0.09913759678602219,0.6053631901741028,-0.5255457162857056,0.6026536822319031,0.13781529664993287,-0.3067779541015625,0.667525589466095,0.9111171364784241,-0.06846263259649277,0.04072931781411171,-0.1803354173898697,-0.5261532664299011,0.02335190586745739,0.2791421115398407]},{"type":"node","weights":[-0.24147190153598786,0.3036114275455475,-0.20043273270130158,0.5565826296806336,0.5206246376037598,-0.3571842312812805,0.011362878605723381,-0.5765265226364136,0.0601610466837883,-0.18536323308944703,0.2538538873195648,0.48626264929771426,-0.19850249588489533,-0.05861745402216911,-0.1830044388771057,0.0014111658092588187,0.017512192949652673]},{"type":"node","weights":[-0.674200713634491,0.6050360202789307,0.07834509760141373,-0.5333343744277954,-0.41632139682769778,-0.22673197090625764,1.1445198059082032,-0.19160333275794984,0.14258511364459992,0.7567578554153442,-0.6458204984664917,-0.8052021265029907,0.34326228499412539,-0.00032122567063197494,0.541670024394989,-0.8812340497970581,0.2232266068458557]},{"type":"node","weights":[-0.30541306734085085,-0.5677334070205689,0.40813925862312319,0.21785876154899598,0.11011266708374024,0.008817153051495552,-0.48611173033714297,0.1205841526389122,0.30185452103614809,0.2789038121700287,0.6111354231834412,-0.21797922253608704,-0.09240840375423432,0.14501097798347474,-0.26135018467903139,0.2943713665008545,0.10847307741641998]},{"type":"node","weights":[-0.3661627769470215,-0.05565100535750389,-0.3363983929157257,0.2570284903049469,0.18197862803936006,-0.19282883405685426,-0.4496305286884308,0.18668660521507264,0.2689369022846222,0.405825674533844,-0.07158124446868897,-0.28031596541404726,0.35684657096862795,-0.30105793476104739,-0.028509095311164857,-0.07855693250894547,0.5625718235969544]},{"type":"node","weights":[-0.2614082396030426,-0.06740052998065949,0.05426383018493652,0.34180304408073428,0.12574218213558198,-0.15972554683685304,-0.3878263831138611,0.6771852970123291,-0.1203422024846077,-0.20761975646018983,0.7111279964447022,0.4811677932739258,-0.48748868703842165,-0.08301861584186554,0.3584328293800354,-0.24341627955436707,0.3627697229385376]},{"type":"node","weights":[-0.43539902567863467,-0.1203988641500473,-0.08153241872787476,0.19546332955360413,0.04229041188955307,-0.3240470290184021,0.37920501828193667,0.08224635571241379,-0.3139325678348541,0.5721259713172913,0.3801102638244629,0.0697556808590889,-0.19756722450256349,0.10783647000789643,-0.09407010674476624,-0.04739447683095932,0.20259511470794679]},{"type":"node","weights":[0.0418238565325737,-0.21014347672462464,0.09050098061561585,-0.2649112939834595,0.5096124410629273,-0.31652459502220156,-0.28312039375305178,0.18191665410995484,-0.13757100701332093,-0.29680395126342776,0.5030480623245239,0.3007555603981018,-0.5202434062957764,0.2127412110567093,0.4500378668308258,0.6370369791984558,0.7772322297096252]},{"type":"node","weights":[-0.21884573996067048,0.19588503241539002,0.2059914618730545,-0.32371631264686587,0.3917738199234009,-0.3773943781852722,-0.14789539575576783,-0.15584565699100495,-0.27851811051368716,0.4058188796043396,0.07512728869915009,-0.15531235933303834,0.08199456334114075,0.26326125860214236,-0.10624923557043076,-0.028829429298639299,0.5062605142593384]},{"type":"node","weights":[0.12424417585134506,-0.5329128503799439,0.07023424655199051,-0.3617846667766571,0.4843280017375946,-0.26934170722961428,0.07596879452466965,-0.29865819215774538,0.3639742434024811,0.011502551846206189,0.5319175720214844,-0.15544123947620393,-0.12899340689182282,0.25332558155059817,0.38054853677749636,-0.3447019159793854,0.03916798532009125]},{"type":"node","weights":[-0.051149461418390277,-0.6353368163108826,-0.1091863140463829,0.273138165473938,0.3758898675441742,-0.15389791131019593,-0.5250259041786194,0.1308576613664627,-0.2677784264087677,0.32225170731544497,-0.0769948661327362,0.22239169478416444,0.41997021436691286,0.12544961273670197,0.15841087698936463,0.4512118995189667,0.38441967964172366]}]},{"type":"layer","input_size":16,"output_size":3,"transfer":"relu","nodes":[{"type":"node","weights":[0.6557531952857971,0.6852315664291382,-0.5514443516731262,0.43153178691864016,-0.8358523845672607,-1.5182554721832276,-1.114535927772522,-1.6872018575668336,-0.28859275579452517,-0.30308398604393008,-0.7492380142211914,-0.28432902693748476,-0.727563202381134,-0.5653495788574219,-0.9283155202865601,-0.31637826561927798,1.402775526046753]},{"type":"node","weights":[-0.01389843039214611,-0.03079988807439804,0.032661281526088718,0.10853887349367142,-0.748653769493103,0.544391930103302,-0.6662471294403076,0.723927915096283,-0.29403385519981387,-0.026483511552214624,-0.09779427200555802,-0.8385704159736633,-0.386404424905777,-0.48316967487335207,-0.19688193500041963,-0.5783452391624451,-0.9719441533088684]},{"type":"node","weights":[-1.665260910987854,-1.255685567855835,-0.1023486852645874,-1.767227053642273,-0.24749839305877686,-0.8417819738388062,-0.04784214869141579,0.8628004193305969,-1.0678669214248658,-0.6657686829566956,-0.13500049710273744,-0.4903896450996399,-0.7043065428733826,0.07988808304071427,-0.14854437112808228,-1.0003029108047486,0.5638791918754578]}]}]}