{"type":"network","input_size":18,"output_size":3,"layers":[{"type":"layer","input_size":18,"output_size":16,"transfer":"relu","nodes":[{"type":"node","weights":[1.04239821434021,0.173336461186409,0.743006706237793,0.7945988178253174,-0.04467075318098068,0.6468309164047241,0.8394469618797302,-0.3253018260002136,0.9801830053329468,-0.1650829315185547,0.2962588369846344,-0.34459903836250307,0.39390793442726138,0.28979161381721499,0.4796750247478485,0.8233404755592346,1.052332878112793,0.42870840430259707,0.33284634351730349]},{"type":"node","weights":[0.8858219385147095,0.05892555043101311,0.4212513566017151,0.9056994915008545,0.35263288021087649,1.0939644575119019,0.12571485340595246,0.16523990035057069,0.5677893757820129,0.2903948724269867,0.27869242429733279,-0.2689945697784424,0.05600254610180855,0.3777080774307251,-0.5267682671546936,1.1855658292770386,0.09018395096063614,1.000545620918274,0.5686718225479126]},{"type":"node","weights":[0.6910197138786316,0.4447104036808014,0.5526430606842041,0.7659119963645935,-0.3922520875930786,0.025211894884705545,0.7458409667015076,-0.48597052693367007,0.7044286131858826,0.06242246553301811,0.5122882723808289,-0.09455998241901398,0.741603434085846,0.4935666620731354,0.06682819128036499,0.5976405143737793,0.003285076702013612,0.33023136854171755,-0.1560395359992981]},{"type":"node","weights":[0.45418763160705569,-0.24930839240550996,0.43236997723579409,0.3964536190032959,0.6139904260635376,-0.04281015321612358,0.3624287247657776,-0.3049355745315552,0.7582511901855469,-0.41666993498802187,0.41761019825935366,-0.4278337359428406,0.6402610540390015,0.45684748888015749,0.46118664741516116,0.3336017429828644,-0.4229954779148102,0.13215069472789765,-0.08911001682281494]},{"type":"node","weights":[0.4455195367336273,0.11582642048597336,-0.0319751612842083,0.36307647824287417,-0.043035149574279788,-0.11744341254234314,0.9831044673919678,-0.36310920119285586,0.03095746971666813,-0.039232563227415088,0.5758283138275147,-0.8047374486923218,0.11063768714666367,0.32173416018486025,-0.6548053622245789,0.44412344694137576,-0.11455585807561875,-0.05667388439178467,-0.6214239001274109]},{"type":"node","weights":[0.7310807108879089,0.5956214070320129,0.904355525970459,0.6794860363006592,0.8716554641723633,0.04865926131606102,0.9946482181549072,0.13739816844463349,0.13680168986320496,0.22642792761325837,0.7173791527748108,-0.057147569954395297,0.7907702326774597,0.04377574846148491,0.005492576863616705,0.6100280284881592,0.09207361191511154,0.8175028562545776,0.056070197373628619]},{"type":"node","weights":[-0.0030928864143788816,0.9337266683578491,0.030102364718914033,0.9579931497573853,-0.7001298069953919,0.6041845083236694,0.4401288628578186,0.6467652320861816,-0.21349667012691499,0.6744056940078735,0.10432742536067963,0.7820858955383301,0.18360796570777894,0.729905903339386,0.08395548909902573,0.7699008584022522,0.0953933522105217,0.8493301868438721,0.2767140567302704]},{"type":"node","weights":[0.22468073666095735,-0.24926401674747468,1.0525082349777222,-0.08330492675304413,-0.02881096675992012,0.11698440462350846,0.191175639629364,0.2286001443862915,0.8669916391372681,-0.1926237791776657,0.09415151923894882,0.17648670077323914,0.013007123954594136,0.08218543231487274,-0.7464861273765564,0.8137618899345398,-0.513534665107727,0.2298610359430313,0.22898361086845399]},{"type":"node","weights":[0.18825797736644746,0.7370326519012451,0.2370576113462448,0.7678497433662415,0.30037161707878115,0.5189885497093201,0.5038761496543884,0.27743396162986758,0.22084222733974458,-0.5872318744659424,0.7461952567100525,0.13926342129707337,0.5082382559776306,0.7120111584663391,-0.08022139221429825,0.81791752576828,0.3096991181373596,0.6895967721939087,-0.6418472528457642]},{"type":"node","weights":[-0.07029543817043305,1.040258765220642,-0.11256634443998337,0.9049587845802307,-0.3529687225818634,0.3435480296611786,-0.2186209261417389,-0.09546808153390885,0.269094854593277,-0.18500304222106934,-0.025069167837500573,-0.2199745774269104,0.010486179031431675,0.6116412878036499,-0.13333305716514588,0.5671697854995728,-0.3481939733028412,0.7279787063598633,0.7658248543739319]},{"type":"node","weights":[0.24902161955833436,-0.2812017798423767,0.005652659572660923,0.4468240439891815,-0.14352810382843018,0.24295131862163545,0.29670679569244387,-0.07028482854366303,-0.22995199263095857,0.10313263535499573,-0.16720038652420045,0.649066150188446,0.5335130095481873,0.131425142288208,-0.644234836101532,0.5856480598449707,-0.4636809229850769,0.5568539500236511,-0.8142144680023193]},{"type":"node","weights":[0.4949163794517517,0.3905175030231476,0.7497876286506653,0.15336915850639344,-0.1794203519821167,0.36212027072906496,0.5103018283843994,0.0692695751786232,0.7681703567504883,-0.021860985085368158,1.161364197731018,-0.33798837661743166,0.43087226152420046,-0.07166144996881485,0.6225677728652954,-0.1573570817708969,0.15630215406417848,0.6153972744941711,-0.3587298095226288]},{"type":"node","weights":[-0.15537379682064057,0.4225611388683319,0.6126875281333923,0.22984400391578675,-0.1573246866464615,0.7084959149360657,0.978248655796051,0.17236490547657014,0.11673875153064728,0.23188884556293488,0.14396758377552033,0.15954720973968507,-0.14729824662208558,0.40868285298347475,0.16076071560382844,0.5698345303535461,-0.8563815355300903,0.313728928565979,0.4627459943294525]},{"type":"node","weights":[0.7489279508590698,0.5405434370040894,0.5524449944496155,0.5662374496459961,-0.3969670534133911,0.10938794910907746,0.4878065288066864,-0.3312108814716339,0.840854823589325,-0.572766900062561,-0.0363573282957077,0.05529140308499336,0.531988263130188,0.15307432413101197,0.02644737809896469,0.7174215912818909,-0.5160089135169983,0.25812003016471865,0.29464277625083926]},{"type":"node","weights":[0.11709349602460861,0.021843547001481057,0.0472627729177475,0.5704222321510315,-0.757693350315094,1.0173770189285279,0.5502524375915527,-0.0800153911113739,0.06929713487625122,0.14296869933605195,0.13512369990348817,-0.1273375302553177,0.025076452642679216,0.6975579857826233,0.10010219365358353,0.7566919922828674,0.12171152979135513,0.37731656432151797,-0.4124024510383606]},{"type":"node","weights":[0.3023827075958252,0.35124829411506655,0.2646389901638031,0.09904349595308304,-0.07799685746431351,-0.06617554277181626,0.9003946781158447,-0.313458114862442,0.18153899908065797,-0.2880427837371826,0.22013334929943086,-0.29334503412246706,0.45227351784706118,0.03876568377017975,0.521860659122467,0.03936203569173813,0.6449193358421326,-0.16713635623455048,-0.1507931351661682]}]},{"type":"layer","input_size":16,"output_size":16,"transfer":"relu","nodes":[{"type":"node","weights":[0.36147382855415347,-0.11373411864042282,0.094877228140831,-0.5053579211235046,0.6288605332374573,-0.3370283842086792,0.5072827339172363,0.5959187150001526,0.14795807003974915,0.5809264779090881,0.4166317582130432,-0.3229143023490906,-0.6785862445831299,-0.7502100467681885,-0.3499555289745331,-0.0551065169274807,1.0295730829238892]},{"type":"node","weights":[0.28615689277648928,-0.18956758081912995,-0.2851492166519165,-0.26276126503944399,-0.01101151667535305,-0.6420704126358032,0.10591214150190354,-0.33025097846984866,-0.3305823802947998,-0.028613531962037088,0.5047537088394165,0.5023757219314575,0.2851249575614929,0.4062870740890503,0.739661455154419,-0.04832252115011215,0.47400879859924319]},{"type":"node","weights":[-0.1054011881351471,-0.12053292989730835,-0.1805206537246704,-0.02351200208067894,0.256826251745224,-0.5458372235298157,0.2664259374141693,0.07843127846717835,-0.42821839451789858,0.14957115054130555,-0.14920896291732789,0.4395882487297058,-0.19095490872859956,0.259531706571579,0.3245124816894531,0.13259385526180268,0.7585039734840393]},{"type":"node","weights":[-0.7468271255493164,0.1660085767507553,-0.2416887730360031,0.17829345166683198,0.35106706619262698,-0.14373496174812318,0.7090835571289063,0.066340871155262,-0.33226409554481509,0.7058820128440857,0.312469482421875,-0.2709971070289612,0.5567427277565002,0.184200257062912,-0.27798929810523989,-0.5803111791610718,0.7947338819503784]},{"type":"node","weights":[-0.3112669587135315,-0.3097337484359741,0.07789994776248932,0.4318094253540039,0.4137366712093353,-0.028674021363258363,-0.5964260101318359,-0.10746317356824875,0.3418291509151459,0.039815377444028857,0.4418865740299225,-0.15500782430171967,-0.0776745080947876,0.31967681646347048,0.008802054449915886,0.05266261100769043,0.26550590991973879]},{"type":"node","weights":[0.10847381502389908,0.3017406165599823,-0.5401609539985657,-0.09438993036746979,0.5777169466018677,-0.5960178971290588,0.6154671907424927,0.09689319878816605,-0.29215559363365176,0.7303945422172546,0.8637068867683411,-0.053256455808877948,0.19558411836624146,-0.28314244747161868,-0.5628089308738709,0.0770251527428627,0.31851789355278017]},{"type":"node","weights":[-0.20490260422229768,0.3729516565799713,-0.14809906482696534,0.5734795928001404,0.4890580177307129,-0.4071411192417145,-0.10193227231502533,-0.43722620606422427,0.010382034815847874,-0.19624561071395875,0.16917286813259126,0.4946838915348053,-0.1784411370754242,-0.09400945156812668,-0.1462928205728531,-0.028552187606692315,-0.05819455534219742]},{"type":"node","weights":[-0.8130608797073364,0.5705581307411194,0.10229315608739853,-0.3880190849304199,-0.6010407209396362,-0.08717986941337586,1.195981502532959,-0.1511300653219223,0.05907845124602318,0.6831369996070862,-0.7544643878936768,-0.8372761011123657,0.380471408367157,0.10513802617788315,0.6380497813224793,-0.8585337400436401,0.17968717217445374]},{"type":"node","weights":[-0.33363115787506106,-0.6056901812553406,0.38393762707710268,0.19964580237865449,0.10427258908748627,-0.004970025736838579,-0.49291864037513735,0.08407357335090637,0.2665579915046692,0.25401732325553896,0.6108782291412354,-0.2326071411371231,-0.08757650852203369,0.10609670728445053,-0.2661476731300354,0.29592472314834597,0.10410714894533158]},{"type":"node","weights":[-0.3562278747558594,-0.06310048699378967,-0.30473414063453677,0.2948501706123352,0.17855237424373628,-0.13444171845912934,-0.4177636206150055,0.18931616842746736,0.3016493618488312,0.4607033133506775,-0.0776161253452301,-0.22076649963855744,0.41257813572883608,-0.2842298150062561,-0.043168921023607257,-0.041916314512491229,0.5622352361679077]},{"type":"node","weights":[-0.2374725341796875,-0.13895662128925324,-0.026837872341275216,0.3544730544090271,0.16888128221035005,-0.026511438190937043,-0.37298816442489626,0.6454000473022461,-0.10513927042484284,-0.23324276506900788,0.762237012386322,0.43519124388694765,-0.36807486414909365,-0.24391870200634004,0.31664150953292849,-0.1915983110666275,0.43592971563339236]},{"type":"node","weights":[-0.4671034812927246,-0.16394715011119843,-0.12068509310483933,0.15938696265220643,0.024220453575253488,-0.33715003728866579,0.38293907046318056,0.030293606221675874,-0.35530099272727969,0.5265247225761414,0.37464088201522829,0.04307541623711586,-0.18113946914672852,0.06943156570196152,-0.08033671975135803,-0.03684908524155617,0.2128109484910965]},{"type":"node","weights":[-0.131508931517601,-0.24812766909599305,0.0992315337061882,-0.25428566336631777,0.3479215204715729,-0.30908605456352236,-0.261125773191452,0.15610429644584657,-0.27818799018859866,-0.29138121008872988,0.6256793141365051,0.2179267704486847,-0.44337528944015505,0.33664119243621828,0.5056838989257813,0.5561299324035645,0.7537350654602051]},{"type":"node","weights":[-0.16742447018623353,0.17413505911827088,0.20131687819957734,-0.34792250394821169,0.41347837448120119,-0.40286171436309817,-0.13078193366527558,-0.12423335015773773,-0.2625170350074768,0.37567138671875,0.06537123769521713,-0.1791408360004425,0.07593580335378647,0.25173068046569826,-0.07234664261341095,-0.0069193546660244469,0.4989630877971649]},{"type":"node","weights":[0.11142916977405548,-0.5706197023391724,0.04820382595062256,-0.3836718797683716,0.4754548668861389,-0.2694888114929199,0.08664177358150482,-0.3289427161216736,0.33839812874794009,-0.014282637275755406,0.5169840455055237,-0.16709312796592713,-0.11345241963863373,0.2218504697084427,0.37646231055259707,-0.336245596408844,0.0425013042986393]},{"type":"node","weights":[-0.06945660710334778,-0.7007677555084229,-0.12163436412811279,0.18960008025169373,0.23785878717899323,-0.06202737241983414,-0.5064913034439087,0.21607112884521485,-0.32491475343704226,0.19219177961349488,-0.0642106905579567,0.26718398928642275,0.41483139991760256,0.24416305124759675,0.13239435851573945,0.4721662402153015,0.30498161911964419]}]},{"type":"layer","input_size":16,"output_size":3,"transfer":"relu","nodes":[{"type":"node","weights":[0.5121845602989197,0.6978962421417236,-0.5245340466499329,0.6753720045089722,-0.8267393112182617,-1.614970326423645,-1.0466190576553345,-1.6761246919631959,-0.2860793173313141,-0.34671586751937868,-0.745029091835022,-0.2936904728412628,-0.6958063244819641,-0.49735891819000246,-0.9390971064567566,-0.26775282621383669,1.7881346940994263]},{"type":"node","weights":[0.03625020757317543,-0.09017900377511978,0.09137272089719773,0.051313433796167377,-0.7186334133148193,0.5588926076889038,-0.6785098910331726,0.6224552392959595,-0.28172022104263308,0.004047413822263479,-0.014265013858675957,-0.8331976532936096,-0.3992038667201996,-0.5259191393852234,-0.20603491365909577,-0.562694787979126,-0.9858510494232178]},{"type":"node","weights":[-1.7762621641159058,-1.2153061628341675,-0.13346658647060395,-1.8928066492080689,-0.24538899958133698,-0.7009653449058533,-0.13625171780586244,0.9015930891036987,-1.0684412717819214,-0.6633047461509705,-0.056944314390420917,-0.49551934003829958,-0.7053987383842468,0.07443396747112274,-0.14521679282188416,-1.005181074142456,0.6285479068756104]}]}]}