{"type":"network","input_size":18,"output_size":3,"layers":[{"type":"layer","input_size":18,"output_size":16,"transfer":"relu","nodes":[{"type":"node","weights":[0.5535090565681458,0.3155198097229004,0.6444317102432251,0.9578744173049927,-0.10526289790868759,0.40400123596191409,0.5548588633537293,-0.061788368970155719,0.18431304395198823,0.47890645265579226,0.115351103246212,0.2359267622232437,0.2849569320678711,0.45447346568107607,-0.30240923166275027,0.6715124845504761,0.6965007781982422,0.9248846173286438,0.9530933499336243]},{"type":"node","weights":[0.976790189743042,-0.06856872141361237,0.371065616607666,0.7744064927101135,0.8626381754875183,0.6615871787071228,0.11554673314094544,0.43857327103614809,0.44658979773521426,0.35695815086364748,0.36537444591522219,-0.1495237946510315,-0.05333263427019119,0.1288267821073532,-0.013825668022036553,0.8279655575752258,0.4808826148509979,0.5291749835014343,0.2450789362192154]},{"type":"node","weights":[0.6903377175331116,0.1186421662569046,0.31670573353767397,0.47208791971206667,0.31093090772628786,0.0326785147190094,0.9769482612609863,0.008417125791311264,0.8225882649421692,0.39038729667663576,0.5118879675865173,0.003261335426941514,0.7391214966773987,0.3211289346218109,0.5476740002632141,0.4274527132511139,0.2570722699165344,0.1797490119934082,-0.27530646324157717]},{"type":"node","weights":[0.38990965485572817,-0.07939465343952179,0.38081392645835879,0.025404300540685655,0.7575168609619141,-0.8576112389564514,0.33346909284591677,-0.43946486711502077,0.44832146167755129,-0.6120998859405518,0.3449196219444275,0.13321471214294434,0.37585198879241946,0.6469931602478027,0.3722352385520935,0.1069214940071106,0.3347781002521515,-0.2532719075679779,-0.10699661076068878]},{"type":"node","weights":[0.2089221328496933,-0.6006749868392944,0.13447782397270204,0.7454276084899902,0.14425186812877656,0.0718676820397377,0.13204461336135865,0.7382137179374695,0.11870002001523972,0.07937407493591309,0.17262057960033418,-0.5230496525764465,0.09313231706619263,0.052332982420921329,0.1310490518808365,-0.6241333484649658,0.1253136396408081,0.7741606831550598,-0.5606743097305298]},{"type":"node","weights":[0.5454972386360169,0.5081292986869812,0.45512428879737856,0.3790682554244995,0.986108660697937,0.029766784980893136,0.8143439292907715,0.6047959327697754,-0.15134593844413758,0.3448799252510071,0.5308131575584412,-0.3709968030452728,0.2538623511791229,-0.12718771398067475,0.39172694087028506,0.470791220664978,0.8588324189186096,0.6766616702079773,-0.10872000455856323]},{"type":"node","weights":[0.17719607055187226,0.6500456929206848,0.35533031821250918,0.4520316421985626,0.4325646162033081,-0.2060961276292801,1.0354523658752442,0.22844302654266358,0.18239814043045045,0.4733162522315979,0.07413633912801743,0.918762743473053,0.30970197916030886,0.1950879991054535,0.8228472471237183,0.13863366842269898,0.8493166565895081,0.4323412775993347,-0.6810425519943237]},{"type":"node","weights":[-0.11752718687057495,0.08904410898685456,0.5741114616394043,-0.26095959544181826,0.04431835189461708,0.05728676915168762,0.4364670515060425,1.080521821975708,0.4534199833869934,0.15659008920192719,-0.016149817034602166,-0.05628441274166107,0.5333350300788879,-0.2804231345653534,-0.19060806930065156,0.9908628463745117,0.3098936080932617,0.10970928519964218,0.5575339198112488]},{"type":"node","weights":[-0.21481850743293763,0.9158157706260681,0.08533812314271927,1.0200494527816773,0.2511357367038727,0.23851478099822999,0.15001849830150605,0.7599521279335022,-0.0002098764234688133,0.3707372844219208,0.28478705883026125,0.5740329623222351,0.5153603553771973,0.8176430463790894,-0.29073286056518557,0.6835864782333374,0.6677048206329346,0.8125633001327515,-0.6432426571846008]},{"type":"node","weights":[0.3164442777633667,0.12339982390403748,-0.4669933617115021,0.7097129225730896,0.33738160133361819,0.1625661700963974,0.0500783771276474,0.7400656938552856,0.03867695480585098,-0.09321049600839615,-0.10140258818864823,-0.023148901760578157,-0.056885551661252978,0.4806232452392578,0.40153276920318606,0.27214762568473818,0.08324266225099564,1.0293025970458985,0.656781792640686]},{"type":"node","weights":[-0.15287968516349793,0.6415119767189026,0.026846565306186677,0.6259973645210266,-0.3266926407814026,0.6434707045555115,0.029123004525899888,0.6135714650154114,-0.4944624900817871,0.623638391494751,-0.012786421924829483,0.6503143310546875,-0.35019707679748537,0.642581582069397,0.023760834708809854,0.647327721118927,-0.10678571462631226,0.6400383114814758,-1.51813805103302]},{"type":"node","weights":[0.4447464346885681,0.4622771739959717,0.2267707884311676,0.3215351998806,-0.3912830054759979,0.09562165290117264,-0.17721492052078248,0.8128402233123779,-0.14024290442466737,0.5203739404678345,1.1404708623886109,0.14710600674152375,0.7502619624137878,-0.056346140801906589,0.2645224928855896,0.2795112133026123,0.19559921324253083,0.6422871947288513,0.15544010698795319]},{"type":"node","weights":[-0.07834464311599732,0.4470463991165161,-0.0039180852472782139,0.5013060569763184,0.1594274491071701,0.08355438709259033,0.6731370687484741,0.4094429910182953,-0.5192586779594421,0.8717910051345825,0.1255113035440445,0.4568842053413391,-0.5899010300636292,0.7142881751060486,0.25404056906700137,0.5938823819160461,-0.17134329676628114,0.0383242592215538,0.46328145265579226]},{"type":"node","weights":[0.312157541513443,0.5102012157440186,-0.8331001996994019,0.4978097677230835,0.3772103190422058,-0.14219997823238374,-0.4503892958164215,0.4511793553829193,0.4707777202129364,0.008666705340147019,-0.09632355719804764,0.4190604090690613,0.3251107633113861,0.4040267765522003,0.3255675733089447,0.780764639377594,-0.5140706300735474,0.45957061648368838,-0.23985858261585236]},{"type":"node","weights":[0.27083873748779299,0.36186882853507998,-0.023292342200875284,0.11287613958120346,-0.10426465421915055,0.7877126336097717,0.4803239703178406,0.3588942885398865,-0.09004524350166321,0.15610644221305848,0.17368167638778687,-0.31518226861953738,-0.1622224748134613,0.3071816563606262,0.40531742572784426,0.8389437198638916,0.411526083946228,0.6263741254806519,-0.5391401052474976]},{"type":"node","weights":[0.09890557825565338,0.4159829020500183,-0.1582287847995758,-0.030111297965049745,0.3946570158004761,-0.17769092321395875,0.6593613624572754,-0.3542642593383789,-0.13395220041275025,-0.2096492052078247,0.32574662566185,-0.0893498957157135,0.2183692902326584,-0.12239643186330795,0.42159774899482729,0.015420171432197094,0.829901397228241,-0.07971108704805374,0.8859675526618958]}]},{"type":"layer","input_size":16,"output_size":16,"transfer":"relu","nodes":[{"type":"node","weights":[0.5373907685279846,-0.06310568004846573,0.5489587783813477,-0.2363891452550888,0.0707152858376503,-0.182728573679924,0.056274957954883578,0.31806454062461855,-0.17385105788707734,0.5702616572380066,0.7507317066192627,0.031261976808309558,-0.07963638752698899,-0.2810632288455963,-0.31250447034835818,0.042181190103292468,0.9149395227432251]},{"type":"node","weights":[0.11826729029417038,0.03757167607545853,-0.5498769283294678,-0.18828131258487702,-0.05817892402410507,-0.4307449460029602,-0.5234152674674988,-0.47989732027053835,-0.4418431520462036,0.04058738797903061,0.9088369011878967,0.8426451683044434,0.5632843375205994,0.8843297362327576,0.08996129781007767,0.11787178367376328,0.8460860252380371]},{"type":"node","weights":[-0.31073781847953799,0.14478468894958497,-0.060209617018699649,0.21102531254291535,-0.02514887973666191,-0.26601842045783999,0.6972542405128479,-0.10833827406167984,-0.0033463200088590385,0.3281967043876648,-0.439323753118515,0.6666346192359924,-0.11033990979194641,0.47320201992988589,0.5298754572868347,-0.2266387939453125,0.3533242344856262]},{"type":"node","weights":[-0.4400143027305603,0.19168515503406526,-0.005017631687223911,-0.3969147801399231,-0.06867329776287079,0.08336686342954636,0.6139573454856873,-0.24462753534317017,-0.17093083262443543,0.4904196858406067,0.6350460648536682,-0.55179762840271,0.4969954490661621,0.43714284896850588,0.4453183114528656,-0.21074233949184419,0.21337836980819703]},{"type":"node","weights":[-0.10647083818912506,-0.1534675657749176,0.20367687940597535,0.5834019780158997,0.8907373547554016,0.3456117510795593,-0.4412953853607178,0.1842561662197113,0.28555989265441897,-0.27387991547584536,0.7137112021446228,-0.28158652782440188,0.008075686171650887,0.44777292013168337,0.2555723488330841,0.34467756748199465,0.2684968411922455]},{"type":"node","weights":[0.19214269518852235,-0.4273883104324341,-0.5810670256614685,0.12658116221427918,0.08936231583356857,0.03179541602730751,0.43582504987716677,0.23636038601398469,-0.29511380195617678,0.29855960607528689,1.1690441370010377,-0.05958244204521179,0.2325127124786377,0.01865966059267521,-0.15153612196445466,0.8407038450241089,0.2924668788909912]},{"type":"node","weights":[0.27965718507766726,-0.014863728545606137,0.1842149794101715,1.0763927698135377,1.136635422706604,-0.420785516500473,0.6396317481994629,-0.6747734546661377,0.04709841310977936,-0.611944854259491,0.2788330614566803,0.11530924588441849,-0.03361884504556656,0.059222929179668429,-0.4884927570819855,0.16952402889728547,0.12588666379451753]},{"type":"node","weights":[-0.6123514175415039,0.12412478029727936,0.6712660193443298,0.09700355678796768,0.34174680709838869,0.5763326287269592,0.6654946804046631,-0.0986713245511055,-0.031325530260801318,-0.28001314401626589,-0.7534314393997192,-0.25543177127838137,-0.2567731738090515,-0.25181108713150027,0.8078319430351257,0.331148236989975,0.06808959692716599]},{"type":"node","weights":[-0.18105022609233857,-0.3005131781101227,0.47833070158958437,0.24328827857971192,-0.004790668375790119,0.07010059803724289,-0.2244577705860138,0.11376841366291046,0.6149519681930542,0.49879616498947146,0.5912380218505859,-0.030170589685440065,-0.038297802209854129,0.2713935971260071,-0.16631607711315156,0.2336977869272232,0.05603249371051788]},{"type":"node","weights":[-0.08989584445953369,-0.004260619170963764,-0.29753169417381289,0.14945411682128907,-0.16602154076099397,-0.2299102246761322,-0.2570400834083557,0.19901730120182038,0.7382937669754028,0.8103337287902832,0.26458263397216799,0.08230029791593552,0.6543976068496704,-0.09009896963834763,-0.06612840294837952,-0.16310793161392213,0.7434362173080444]},{"type":"node","weights":[-0.13800811767578126,0.053033940494060519,-0.0833057090640068,0.03206408768892288,0.3087525963783264,-0.007474157493561506,-0.2765779197216034,1.0093327760696412,0.01417879480868578,-0.35654109716415408,0.6438014507293701,0.8351539373397827,-0.6796283721923828,-0.0818454772233963,0.6762498617172241,-0.24516771733760835,0.45884642004966738]},{"type":"node","weights":[-0.3961828351020813,0.1254371553659439,0.060142502188682559,0.44974035024642947,0.18429593741893769,-0.07486797869205475,0.6284581422805786,0.23163975775241853,-0.31676843762397768,0.4536263942718506,0.1620148867368698,0.16814465820789338,-0.25861576199531557,0.11899688094854355,-0.01560326386243105,0.18080221116542817,0.2376125454902649]},{"type":"node","weights":[-0.04592173174023628,-0.038870036602020267,0.10348846018314362,-0.266263872385025,0.34547388553619387,-0.08391502499580383,-0.15908703207969666,0.30083024501800539,-0.14658138155937196,-0.24301835894584657,1.0017459392547608,0.2993984818458557,-0.29395008087158205,0.5206789374351502,0.5518797636032105,0.6669902205467224,0.9091564416885376]},{"type":"node","weights":[-0.4166029989719391,0.3443109095096588,0.2294214516878128,-0.10551854968070984,0.7206729054450989,0.0014793641166761518,0.00911366380751133,0.10709745436906815,-0.19266873598098756,0.19957421720027924,0.2323257476091385,-0.274894118309021,0.48844414949417117,0.3814285099506378,0.09451941400766373,-0.05458122119307518,0.23462516069412232]},{"type":"node","weights":[0.4532814621925354,-0.3376092314720154,0.06072897091507912,-0.36810383200645449,0.40051889419555666,-0.07451886683702469,0.5559065341949463,-0.29352501034736636,0.988743782043457,-0.09873511642217636,1.2181954383850098,-0.011703208088874817,0.342659592628479,0.3301810324192047,0.5397022366523743,-0.6964914202690125,-0.3373696506023407]},{"type":"node","weights":[0.05861581861972809,-0.37411636114120486,-0.033563945442438129,0.3154408633708954,0.2398425191640854,0.046186964958906177,-0.2064453661441803,0.17234548926353455,-0.1679445207118988,0.6783074140548706,-0.14889244735240937,0.2947002649307251,0.4507543444633484,0.22927320003509522,0.06364700943231583,0.6948444843292236,0.7920709252357483]}]},{"type":"layer","input_size":16,"output_size":3,"transfer":"relu","nodes":[{"type":"node","weights":[-0.060581594705581668,-1.3297419548034669,0.5333291292190552,-1.0156128406524659,-0.3243045210838318,-0.7040730118751526,0.02011079154908657,0.8159268498420715,0.006187452469021082,-0.09497572481632233,-0.2387549728155136,0.3386971056461334,-0.31288138031959536,0.1345871388912201,-0.443337082862854,0.22636595368385316,0.5843517780303955]},{"type":"node","weights":[-0.10117997229099274,0.010885637253522873,0.42816030979156496,0.1574385017156601,-0.4658958315849304,-0.40274256467819216,-1.1164183616638184,-0.28309690952301028,0.36814093589782717,0.48200109601020815,-0.46924951672554018,-0.1412104219198227,-0.4809631109237671,-0.28949305415153506,0.9302403330802918,-0.23875977098941804,0.46120065450668337]},{"type":"node","weights":[-0.8830268979072571,0.20411956310272218,-0.038959987461566928,-0.1652219146490097,0.6850493550300598,-0.2140207439661026,1.0940139293670655,0.7396280765533447,-0.28919312357902529,-0.6379444003105164,0.8542481064796448,-0.06207567825913429,-0.19101665914058686,0.45092740654945376,0.5615153312683106,-0.6319916844367981,-0.10885734856128693]}]}]}