{"type":"network","input_size":18,"output_size":3,"layers":[{"type":"layer","input_size":18,"output_size":16,"transfer":"relu","nodes":[{"type":"node","weights":[0.5715047121047974,0.28238362073898318,0.598983883857727,0.9019685387611389,-0.05886033922433853,0.5540128350257874,0.642672061920166,-0.029602570459246637,0.21581226587295533,0.48494288325309756,0.04714035242795944,0.20117434859275819,0.19828304648399354,0.3756030797958374,-0.18645603954792024,0.6679769158363342,0.7198819518089294,0.9733724594116211,0.8807249069213867]},{"type":"node","weights":[0.9606260657310486,-0.049144912511110309,0.3703891634941101,0.7771110534667969,0.8753241896629334,0.6544406414031982,0.09999397397041321,0.44504693150520327,0.4505990445613861,0.3638986349105835,0.3644593358039856,-0.13000470399856568,-0.03453652560710907,0.17355923354625703,-0.023962685838341714,0.8356572389602661,0.5105099081993103,0.5163487195968628,0.2931368052959442]},{"type":"node","weights":[0.7269792556762695,0.16013206541538239,0.3169439136981964,0.4704877436161041,0.19701045751571656,0.05645540729165077,0.9501836895942688,0.0071585578843951229,0.7713162899017334,0.370877742767334,0.5547630786895752,-0.002126047620549798,0.7528347373008728,0.33284786343574526,0.5389740467071533,0.4386088252067566,0.29746463894844057,0.16362179815769196,-0.22127507627010346]},{"type":"node","weights":[0.4179318845272064,-0.10262557119131088,0.4448654055595398,0.10346723347902298,0.7184997200965881,-0.852182924747467,0.3332690894603729,-0.47753503918647768,0.45142436027526858,-0.5576949715614319,0.3570311367511749,0.12816596031188966,0.3903096616268158,0.6182352900505066,0.29081958532333376,0.174173042178154,0.33477529883384707,-0.24572040140628816,-0.11413397639989853]},{"type":"node","weights":[0.2281341701745987,-0.6039462685585022,0.16957585513591767,0.7431624531745911,0.1274387687444687,0.006310860626399517,0.11857958883047104,0.6585859060287476,0.146798238158226,0.08430326730012894,0.1812458336353302,-0.5520046353340149,0.11833757162094116,0.06973753869533539,0.1472216695547104,-0.6632436513900757,0.12933704257011414,0.7360283136367798,-0.5393747687339783]},{"type":"node","weights":[0.597506046295166,0.5678660869598389,0.5625731348991394,0.4299446642398834,0.9085805416107178,-0.01718246191740036,0.7631829380989075,0.5480248332023621,-0.188921719789505,0.3375687599182129,0.5915955305099487,-0.3250778913497925,0.3129417300224304,-0.1051301434636116,0.3503599464893341,0.45588451623916628,0.7929571270942688,0.691195011138916,-0.07018647342920304]},{"type":"node","weights":[0.20806831121444703,0.6252462863922119,0.4022972583770752,0.52898108959198,0.28499069809913638,-0.44748109579086306,0.9531459808349609,0.2704436779022217,0.1525658518075943,0.41482263803482058,0.25018027424812319,0.9082313179969788,0.42359060049057009,0.25006601214408877,0.6701570153236389,0.18785560131072999,0.85107421875,0.39033839106559756,-0.5158504843711853]},{"type":"node","weights":[-0.010918828658759594,0.06425511837005615,0.5789385437965393,-0.20143824815750123,-0.005150822922587395,0.012701589614152909,0.4010069966316223,1.023984670639038,0.39164334535598757,0.17150312662124635,0.06433264166116715,-0.03630223497748375,0.4850477874279022,-0.30000263452529909,-0.20320606231689454,1.029464840888977,0.3132856786251068,0.05456138029694557,0.5423792004585266]},{"type":"node","weights":[-0.16286206245422364,0.9145418405532837,0.07809142023324967,0.9724921584129334,0.26633307337760928,0.31520405411720278,0.16824650764465333,0.7702338099479675,-0.05053756386041641,0.3524552881717682,0.28661391139030459,0.5298595428466797,0.4987989068031311,0.7508456707000732,-0.22137725353240968,0.7057293653488159,0.660578191280365,0.8264836668968201,-0.6466797590255737]},{"type":"node","weights":[0.30419090390205386,0.14114515483379365,-0.40856295824050906,0.784575343132019,0.26181554794311526,0.013465410098433495,0.01819390058517456,0.7175910472869873,0.06612446159124375,-0.07404788583517075,-0.05288434028625488,-0.07701294869184494,0.028297923505306245,0.5154628157615662,0.28125274181365969,0.2895389795303345,0.09620923548936844,1.0139232873916627,0.7094417214393616]},{"type":"node","weights":[-0.10817066580057144,0.6529250741004944,0.04459324851632118,0.6527885794639587,-0.21612176299095155,0.6524539589881897,0.05323249474167824,0.6566724181175232,-0.4806637167930603,0.6519814133644104,0.021235870197415353,0.6500167846679688,-0.23340953886508943,0.6534780263900757,0.05451297014951706,0.6650422811508179,-0.08778746426105499,0.6543096303939819,-1.7361204624176026]},{"type":"node","weights":[0.3542361259460449,0.42510610818862917,0.051715072244405749,0.17182345688343049,-0.19881561398506165,0.3767291009426117,-0.06539961695671082,0.8457594513893127,-0.13514453172683717,0.566716194152832,0.8968110084533691,0.1008748784661293,0.664586067199707,-0.16300740838050843,0.3905111253261566,0.2486775815486908,0.22389040887355805,0.6666368246078491,-0.031015122309327127]},{"type":"node","weights":[-0.1241912767291069,0.43246185779571535,0.03670230135321617,0.570989727973938,0.12949533760547639,-0.051908139139413837,0.6411786675453186,0.3805733621120453,-0.4872397184371948,0.9004418849945068,0.18728722631931306,0.4547419250011444,-0.5514838695526123,0.7713777422904968,0.20466572046279908,0.5745598673820496,-0.16761355102062226,0.004333254881203175,0.4745461642742157]},{"type":"node","weights":[0.4742349684238434,0.5086109042167664,-0.7135768532752991,0.6222055554389954,0.35912105441093447,-0.27506497502326968,-0.26843002438545229,0.4626263976097107,0.40983083844184878,-0.056200794875621799,-0.1519099920988083,0.4785909652709961,0.22718502581119538,0.4330694377422333,0.30729299783706667,0.8574444651603699,-0.45290297269821169,0.4551854133605957,-0.16519546508789063]},{"type":"node","weights":[0.22279520332813264,0.3528958559036255,-0.051190540194511417,0.20328396558761598,-0.10410881042480469,0.6548255085945129,0.4286660850048065,0.31428664922714236,-0.05415865033864975,0.09419677406549454,0.2323852926492691,-0.3028266727924347,-0.1376791000366211,0.39668184518814089,0.372673898935318,0.8390964865684509,0.35613954067230227,0.5438278913497925,-0.5359590649604797]},{"type":"node","weights":[0.08737088739871979,0.4218590557575226,-0.1595359444618225,0.0072092474438250069,0.3495885133743286,-0.185415580868721,0.6870923638343811,-0.3411308228969574,-0.10487478971481323,-0.19886747002601624,0.3201899826526642,-0.0804535523056984,0.21559831500053407,-0.12559965252876283,0.40300115942955019,-0.002570890821516514,0.8240204453468323,-0.057870496064424518,0.8386048078536987]}]},{"type":"layer","input_size":16,"output_size":16,"transfer":"relu","nodes":[{"type":"node","weights":[0.5214669704437256,-0.06827595084905625,0.5416115522384644,-0.22445061802864076,0.09244370460510254,-0.18298453092575074,0.045724108815193179,0.3084433674812317,-0.18642017245292664,0.5644967555999756,0.7310189604759216,0.01365078054368496,-0.08434620499610901,-0.2943834960460663,-0.2657102644443512,0.05577369034290314,0.8985644578933716]},{"type":"node","weights":[0.02330927550792694,0.07262042164802551,-0.49430376291275027,-0.34020423889160159,-0.09564177691936493,-0.3514443337917328,-0.3440655469894409,-0.48675307631492617,-0.3398405909538269,0.09629548341035843,0.9089001417160034,0.5942255854606628,0.6057637929916382,0.9229152202606201,0.22636434435844422,0.1142290011048317,0.7781528830528259]},{"type":"node","weights":[-0.27643483877182009,0.15086843073368073,-0.05847330018877983,0.17858536541461945,-0.0048059578984975819,-0.2589736878871918,0.6825286746025086,-0.03623254969716072,0.004819915629923344,0.3291216492652893,-0.505776047706604,0.6449880599975586,-0.12994740903377534,0.49092286825180056,0.5223183631896973,-0.22319558262825013,0.36867621541023257]},{"type":"node","weights":[-0.3620668649673462,0.11601949483156204,-0.028402771800756456,-0.008328644558787346,-0.13116224110126496,-0.044490158557891849,0.4373631477355957,-0.20616887509822846,-0.08016134798526764,0.5114949345588684,0.6579914093017578,-0.304332435131073,0.5646630525588989,0.36322900652885439,0.06215329095721245,-0.11969248205423355,0.3730144798755646]},{"type":"node","weights":[-0.13415193557739259,-0.17137399315834046,0.2146352231502533,0.6342652440071106,0.8697963953018189,0.33479025959968569,-0.4178338050842285,0.11070649325847626,0.3043639659881592,-0.29033347964286806,0.777798593044281,-0.2449752390384674,0.0393967479467392,0.44309940934181216,0.21290183067321778,0.3380444049835205,0.2602502703666687]},{"type":"node","weights":[0.1882539689540863,-0.43149226903915408,-0.5360978841781616,0.21721959114074708,0.07259257882833481,0.03211222216486931,0.4364626109600067,0.2439926564693451,-0.3014492392539978,0.2791614830493927,1.2313690185546876,-0.0362488254904747,0.2220284342765808,0.01251686830073595,-0.20639580488204957,0.7835045456886292,0.2828577756881714]},{"type":"node","weights":[0.18547648191452027,0.014283092692494393,0.13146455585956574,1.0010640621185303,1.0889549255371094,-0.388799786567688,0.5749280452728272,-0.6019534468650818,-0.012953503057360649,-0.5357996225357056,0.23262189328670503,0.13180489838123322,-0.017496498301625253,0.03546105697751045,-0.4542081952095032,0.2586199939250946,0.1433185487985611]},{"type":"node","weights":[-0.5768332481384277,0.06827881187200546,0.6611562371253967,0.12949693202972413,0.38968774676322939,0.5291103720664978,0.6681433916091919,-0.07871004939079285,0.02454199455678463,-0.29478880763053896,-0.8241103291511536,-0.25185710191726687,-0.2624744772911072,-0.22779662907123567,0.7169178128242493,0.3134787380695343,0.08551668375730515]},{"type":"node","weights":[-0.19470469653606416,-0.2888147234916687,0.4755103886127472,0.20719625055789948,-0.012812393717467785,0.09736643731594086,-0.2357233762741089,0.13992057740688325,0.6011447906494141,0.5045656561851502,0.5818099975585938,-0.04581593722105026,-0.04619825258851051,0.2755177319049835,-0.13401366770267487,0.24493199586868287,0.05223255977034569]},{"type":"node","weights":[-0.12712252140045167,0.003912340849637985,-0.31063416600227358,0.09875543415546417,-0.17508564889431,-0.19671818614006043,-0.2806454300880432,0.22309163212776185,0.7081051468849182,0.8118293285369873,0.2530810236930847,0.05129602178931236,0.6389714479446411,-0.09248324483633042,-0.007480492815375328,-0.14813721179962159,0.7291848659515381]},{"type":"node","weights":[-0.22213585674762727,0.11426520347595215,-0.10498985648155213,0.13338616490364076,0.3687361180782318,-0.002312948927283287,-0.31346777081489565,0.9584270715713501,-0.03351086005568504,-0.35506802797317507,0.7458065748214722,0.8043211698532105,-0.6022650003433228,-0.06941680610179901,0.6244646310806274,-0.18119144439697267,0.46891114115715029]},{"type":"node","weights":[-0.3739076256752014,0.10846841335296631,0.058622512966394427,0.4740813374519348,0.21302877366542817,-0.09977924078702927,0.6305205821990967,0.24592088162899018,-0.30063164234161379,0.44719943404197695,0.12249121814966202,0.15940900146961213,-0.26911410689353945,0.1240357980132103,-0.03914102166891098,0.1787528395652771,0.24330948293209077]},{"type":"node","weights":[-0.06568007916212082,-0.046962447464466098,0.10260149091482163,-0.22890707850456239,0.34510013461112978,-0.09658175706863404,-0.1505488008260727,0.24562610685825349,-0.14598438143730164,-0.24245025217533112,1.0393784046173096,0.32107245922088625,-0.2847880721092224,0.5072888135910034,0.5658162236213684,0.6690648794174194,0.8959951400756836]},{"type":"node","weights":[-0.4122556447982788,0.3277595639228821,0.23368749022483827,-0.07910118997097016,0.7276824116706848,-0.006972037721425295,0.04352063685655594,0.09025584161281586,-0.17025256156921388,0.19832473993301392,0.2355819195508957,-0.24139267206192017,0.5136111378669739,0.3836132287979126,0.05697415769100189,-0.047994837164878848,0.24570490419864655]},{"type":"node","weights":[0.4231082499027252,-0.3226361572742462,0.07891478389501572,-0.4742889702320099,0.31692638993263247,-0.04720894992351532,0.5597452521324158,-0.3086353540420532,0.9456535577774048,-0.08966797590255737,1.2948760986328126,-0.02741474099457264,0.33044150471687319,0.32686686515808108,0.5624387860298157,-0.6841025948524475,-0.33281099796295168]},{"type":"node","weights":[0.08094219863414765,-0.38405588269233706,-0.033379003405570987,0.3505909740924835,0.28420373797416689,0.025453291833400728,-0.2101818025112152,0.17835389077663423,-0.15771181881427766,0.6700049042701721,-0.19756588339805604,0.28346702456474306,0.44603046774864199,0.22290287911891938,0.07622145861387253,0.7026236653327942,0.7888820171356201]}]},{"type":"layer","input_size":16,"output_size":3,"transfer":"relu","nodes":[{"type":"node","weights":[-0.06074614077806473,-1.1085503101348878,0.5657798647880554,-0.4828075170516968,-0.3499063551425934,-0.7384520769119263,0.022850602865219117,0.8669388890266419,-0.03785701096057892,-0.10870658606290817,-0.2931469678878784,0.334123432636261,-0.4223836064338684,0.0982627272605896,-0.5980785489082336,0.2878040075302124,0.6115016341209412]},{"type":"node","weights":[-0.11573971062898636,0.0014670571545138956,0.4039766788482666,0.269287109375,-0.5284436941146851,-0.4381900727748871,-0.9508266448974609,-0.24529442191123963,0.34808406233787539,0.4590238630771637,-0.4827006161212921,-0.18023920059204102,-0.4384647607803345,-0.2810533344745636,0.8932645916938782,-0.28327247500419619,0.4578748047351837]},{"type":"node","weights":[-0.7923417687416077,-0.16117219626903535,-0.021719954907894136,-0.29281988739967348,0.6822159290313721,-0.26927101612091067,0.9954727292060852,0.668885350227356,-0.23768717050552369,-0.5764625668525696,0.794719398021698,-0.03926457092165947,-0.17315751314163209,0.45609304308891299,0.6260242462158203,-0.6084117293357849,-0.08412501960992813]}]}]}