{"type":"network","input_size":18,"output_size":3,"layers":[{"type":"layer","input_size":18,"output_size":16,"transfer":"relu","nodes":[{"type":"node","weights":[0.558472752571106,0.3036724328994751,0.6004447937011719,0.9249178767204285,-0.042288608849048617,0.4952738583087921,0.5931092500686646,-0.02710573747754097,0.20821097493171693,0.49668848514556887,0.07870185375213623,0.2188214510679245,0.2418389916419983,0.391551673412323,-0.2370893359184265,0.6727356910705566,0.7083632349967957,0.948985755443573,0.8847755789756775]},{"type":"node","weights":[0.9734911322593689,-0.05913569778203964,0.3752936124801636,0.7803897261619568,0.8501811027526856,0.652748703956604,0.10609754920005799,0.42992883920669558,0.44196560978889468,0.3555004894733429,0.37974944710731509,-0.13786017894744874,-0.04128092899918556,0.16853798925876618,-0.024131186306476594,0.8304255604743958,0.4978913962841034,0.5190443992614746,0.286706805229187]},{"type":"node","weights":[0.7090979814529419,0.14408347010612489,0.32010170817375185,0.4730139374732971,0.23428736627101899,0.04733966290950775,0.9639701247215271,-0.0035212794318795206,0.7857289910316467,0.38108038902282717,0.5444144010543823,-0.005111214704811573,0.759349524974823,0.33564120531082156,0.5328078866004944,0.4288216233253479,0.2767784595489502,0.1748024821281433,-0.2429416924715042]},{"type":"node","weights":[0.40692371129989626,-0.08654863387346268,0.4219265580177307,0.07209769636392594,0.736475944519043,-0.8442636132240295,0.3381923735141754,-0.4565528333187103,0.44416552782058718,-0.5843681693077087,0.36663979291915896,0.14286333322525025,0.3631229102611542,0.6365188956260681,0.34005090594291689,0.1428091675043106,0.33412906527519228,-0.2575768530368805,-0.13683263957500459]},{"type":"node","weights":[0.21524477005004884,-0.6016413569450378,0.15600983798503877,0.740548312664032,0.13160023093223573,0.04304737225174904,0.12042534351348877,0.7019672393798828,0.1279880702495575,0.08834509551525116,0.16564436256885529,-0.5418716669082642,0.10088040679693222,0.059194840490818027,0.14179116487503053,-0.6515981554985046,0.1266826093196869,0.7567053437232971,-0.5454401969909668]},{"type":"node","weights":[0.5679327845573425,0.5415520668029785,0.517891526222229,0.40801918506622317,0.93623286485672,-0.000570937292650342,0.792383074760437,0.5752087235450745,-0.17222033441066743,0.3358699679374695,0.5537158250808716,-0.34909501671791079,0.29052111506462099,-0.12182252109050751,0.3683048188686371,0.46238934993743899,0.8216553330421448,0.6964825391769409,-0.08215157687664032]},{"type":"node","weights":[0.2008601576089859,0.6254719495773315,0.418729305267334,0.5015673041343689,0.31223732233047488,-0.37900739908218386,0.9952985048294067,0.24343332648277284,0.1674656718969345,0.43340742588043215,0.1687251627445221,0.9125521183013916,0.372369647026062,0.250349223613739,0.7221252918243408,0.16383959352970124,0.8551650047302246,0.399819940328598,-0.5685465335845947]},{"type":"node","weights":[-0.06316866725683212,0.06863971799612045,0.5756590366363525,-0.22435839474201203,0.02252124808728695,0.0360734649002552,0.4083697497844696,1.0584288835525513,0.4253213405609131,0.17287109792232514,0.02449135296046734,-0.05293547734618187,0.5039759874343872,-0.300514817237854,-0.19095824658870698,1.015602707862854,0.31244775652885439,0.08519663661718369,0.5430134534835815]},{"type":"node","weights":[-0.18966494500637055,0.9252327084541321,0.06877002865076065,0.9919262528419495,0.2784167230129242,0.29118967056274416,0.14920474588871003,0.7671024799346924,-0.022861363366246225,0.3705323338508606,0.29042893648147585,0.5584962964057922,0.5207089185714722,0.765219509601593,-0.26077723503112795,0.6958725452423096,0.6605899333953857,0.8217763304710388,-0.6673271059989929]},{"type":"node","weights":[0.31163010001182558,0.12606342136859895,-0.41993722319602969,0.7505453824996948,0.28639692068099978,0.06914378702640534,0.04176357388496399,0.7203987836837769,0.04807590693235397,-0.08711469918489456,-0.08756081014871597,-0.05564657226204872,-0.02274313196539879,0.5133415460586548,0.34914693236351015,0.27707919478416445,0.08977077901363373,1.0174232721328736,0.7215650677680969]},{"type":"node","weights":[-0.12927864491939546,0.6440937519073486,0.04843946546316147,0.6410647034645081,-0.27819353342056277,0.6366809606552124,0.07958175987005234,0.6373082995414734,-0.4900333285331726,0.6439064741134644,0.018270116299390794,0.6443400979042053,-0.31546318531036379,0.6493092775344849,0.08080247044563294,0.6577942967414856,-0.10332237929105759,0.6597329378128052,-1.668595790863037]},{"type":"node","weights":[0.40193971991539,0.44987809658050539,0.10337156057357788,0.22935104370117188,-0.2676091492176056,0.2923160791397095,-0.1271771490573883,0.8363913893699646,-0.14013288915157319,0.5505608916282654,1.0279985666275025,0.12470759451389313,0.7066336870193481,-0.12562136352062226,0.3289285898208618,0.2738017737865448,0.21529114246368409,0.6415490508079529,0.03151780366897583]},{"type":"node","weights":[-0.10082563012838364,0.4373477101325989,0.03362641856074333,0.5360434651374817,0.13679537177085877,0.004892610013484955,0.6699090003967285,0.38300424814224245,-0.4972464442253113,0.8791219592094421,0.14160533249378205,0.46715283393859866,-0.589141845703125,0.757071316242218,0.24570611119270326,0.5750775337219238,-0.1669873148202896,0.02133036032319069,0.4928036034107208]},{"type":"node","weights":[0.42359617352485659,0.5065651535987854,-0.763117253780365,0.5756279826164246,0.34458592534065249,-0.24568675458431245,-0.3330036699771881,0.4490421712398529,0.42394158244132998,-0.04979640617966652,-0.13713759183883668,0.446443647146225,0.25665974617004397,0.4295825660228729,0.31326282024383547,0.8234568238258362,-0.4794642925262451,0.46500977873802187,-0.18405413627624513]},{"type":"node","weights":[0.24586020410060883,0.3436685800552368,-0.018652208149433137,0.15499015152454377,-0.1317112296819687,0.6924117803573608,0.44474470615386965,0.33464515209198,-0.07136733084917069,0.11641040444374085,0.22543679177761079,-0.2969169318675995,-0.15931256115436555,0.3712717294692993,0.3804280757904053,0.8457533121109009,0.38506919145584109,0.5828092098236084,-0.5131692886352539]},{"type":"node","weights":[0.08724485337734223,0.4174683690071106,-0.15182168781757356,-0.012939109466969967,0.37555113434791567,-0.18202701210975648,0.6872432231903076,-0.332759827375412,-0.11892315000295639,-0.20430107414722444,0.2978552579879761,-0.09868140518665314,0.21111240983009339,-0.13306795060634614,0.4186444878578186,0.006764168851077557,0.8258068561553955,-0.06056598946452141,0.8524064421653748]}]},{"type":"layer","input_size":16,"output_size":16,"transfer":"relu","nodes":[{"type":"node","weights":[0.525675356388092,-0.06378430873155594,0.5438469648361206,-0.22506558895111085,0.07526807487010956,-0.18019375205039979,0.04683125019073486,0.3080737888813019,-0.18436942994594575,0.569369375705719,0.741138219833374,0.021375028416514398,-0.0764651894569397,-0.28227418661117556,-0.2875247299671173,0.05083448812365532,0.9078848958015442]},{"type":"node","weights":[0.04807519540190697,0.06407126039266586,-0.5198732614517212,-0.2887951135635376,-0.05713295191526413,-0.3831977844238281,-0.41577622294425967,-0.48735901713371279,-0.39670974016189577,0.08236534893512726,0.9082671403884888,0.6856123208999634,0.6003717184066773,0.9195130467414856,0.16218452155590058,0.1317918300628662,0.8128645420074463]},{"type":"node","weights":[-0.2848888039588928,0.14845533668994904,-0.059677451848983768,0.19517093896865846,-0.00948667898774147,-0.26578232645988467,0.6815124154090881,-0.06036786735057831,0.0016248468309640885,0.3228379786014557,-0.48464661836624148,0.6571353077888489,-0.12291573733091355,0.48263198137283327,0.5209875106811523,-0.22070865333080293,0.3666051924228668]},{"type":"node","weights":[-0.3086380958557129,0.11522373557090759,-0.015824001282453538,-0.12720489501953126,-0.11624594032764435,-0.0504988431930542,0.48076674342155459,-0.2535270154476166,-0.18833692371845246,0.49958691000938418,0.6642019152641296,-0.4376859664916992,0.5607627034187317,0.3014037013053894,0.19262297451496125,-0.13423196971416474,0.34769296646118166]},{"type":"node","weights":[-0.11882581561803818,-0.16655707359313966,0.21048089861869813,0.6060428023338318,0.8787286877632141,0.34022513031959536,-0.4229460060596466,0.13882289826869965,0.2976161241531372,-0.2774839401245117,0.7534074783325195,-0.26441410183906557,0.01823517121374607,0.4396236836910248,0.2388601452112198,0.3384445011615753,0.2594096064567566]},{"type":"node","weights":[0.17830035090446473,-0.42599621415138247,-0.5611770749092102,0.16356000304222108,0.06862341612577439,0.04291015490889549,0.44582274556159975,0.26670578122138979,-0.3013715445995331,0.2888730764389038,1.2150616645812989,-0.05866314470767975,0.21935077011585236,0.012263556942343712,-0.17529365420341493,0.7963109612464905,0.2790766954421997]},{"type":"node","weights":[0.22679834067821504,0.0014648075448349119,0.16924752295017243,1.062414288520813,1.1134895086288453,-0.40586191415786745,0.6070373058319092,-0.6430678367614746,0.029027584940195085,-0.589146077632904,0.26068881154060366,0.13066986203193665,-0.022105775773525239,0.04750966653227806,-0.4818642735481262,0.2027144581079483,0.1264123171567917]},{"type":"node","weights":[-0.5828065276145935,0.08062400668859482,0.6596087217330933,0.11454667896032334,0.37125474214553835,0.5395859479904175,0.6538383960723877,-0.08130774646997452,-0.00726612051948905,-0.29585590958595278,-0.8066560626029968,-0.25661617517471316,-0.26520541310310366,-0.24874049425125123,0.7540524005889893,0.3265974521636963,0.08227843046188355]},{"type":"node","weights":[-0.1917114406824112,-0.29098671674728396,0.4771246612071991,0.22349078953266145,-0.006964824628084898,0.08682062476873398,-0.2309141457080841,0.1290166825056076,0.6098814606666565,0.5003429055213928,0.5859451293945313,-0.03756086528301239,-0.042398396879434589,0.27729538083076479,-0.1501246988773346,0.23966753482818604,0.053689077496528628]},{"type":"node","weights":[-0.11679890751838684,0.005629342515021563,-0.3043636083602905,0.12278398871421814,-0.17043250799179078,-0.20778384804725648,-0.27041110396385195,0.2110225409269333,0.7244213819503784,0.8099756836891174,0.2602750062942505,0.06707842648029328,0.6481724977493286,-0.08428607881069184,-0.03598429262638092,-0.15534837543964387,0.7352195978164673]},{"type":"node","weights":[-0.17420120537281037,0.09778885543346405,-0.08785784989595413,0.09884201735258103,0.34474217891693118,-0.017812056466937066,-0.3097112774848938,0.971013605594635,-0.011800533160567284,-0.3617158830165863,0.706693172454834,0.830520749092102,-0.6375145316123962,-0.08576268702745438,0.6472978591918945,-0.22135880589485169,0.46367567777633669]},{"type":"node","weights":[-0.37956658005714419,0.11156652122735977,0.056901197880506518,0.4655741751194,0.1980718970298767,-0.09272953867912293,0.6234742999076843,0.24220594763755799,-0.3120133876800537,0.44838231801986697,0.1340799629688263,0.16121865808963777,-0.26533055305480959,0.120143823325634,-0.030869383364915849,0.18256956338882447,0.2441062033176422]},{"type":"node","weights":[-0.05920536071062088,-0.04343121871352196,0.10349206626415253,-0.24434161186218263,0.3396153450012207,-0.08802362531423569,-0.14993835985660554,0.2642382085323334,-0.14797061681747437,-0.2370751053094864,1.0272010564804078,0.3091185688972473,-0.2850324213504791,0.514806866645813,0.5625306963920593,0.6664364337921143,0.9000601768493652]},{"type":"node","weights":[-0.4199053645133972,0.3235003650188446,0.2261650562286377,-0.09480316191911698,0.7251579761505127,-0.007202185690402985,0.028908951207995416,0.0933733657002449,-0.18481601774692536,0.1970398873090744,0.23077590763568879,-0.25846168398857119,0.5024347305297852,0.37542521953582766,0.0739908218383789,-0.04898933693766594,0.23950131237506867]},{"type":"node","weights":[0.4203481376171112,-0.32944455742836,0.07166507095098496,-0.44043055176734927,0.3702077269554138,-0.05953807011246681,0.5712138414382935,-0.3042842745780945,0.9758473038673401,-0.09993437677621842,1.2677414417266846,-0.020215794444084169,0.32687893509864809,0.3256869316101074,0.5533727407455444,-0.6982471346855164,-0.34543776512145998]},{"type":"node","weights":[0.07548564672470093,-0.3800894618034363,-0.035031165927648547,0.3405783772468567,0.25642120838165285,0.034025318920612338,-0.21641385555267335,0.1750425547361374,-0.16843146085739137,0.6747178435325623,-0.17939135432243348,0.28846055269241335,0.4530406892299652,0.22838450968265534,0.06867373734712601,0.7029988169670105,0.7956123948097229]}]},{"type":"layer","input_size":16,"output_size":3,"transfer":"relu","nodes":[{"type":"node","weights":[-0.05103316903114319,-1.2188959121704102,0.5392691493034363,-0.6429352760314941,-0.33887284994125368,-0.7302876710891724,0.07997887581586838,0.829296350479126,-0.02920396625995636,-0.10124099254608154,-0.26140332221984866,0.3250714838504791,-0.3729758560657501,0.09754443168640137,-0.5732468962669373,0.28165194392204287,0.6101729273796082]},{"type":"node","weights":[-0.11641789972782135,-0.002749535022303462,0.41768205165863039,0.23558266460895539,-0.48718807101249697,-0.4267144501209259,-1.044621467590332,-0.2515118718147278,0.3597213923931122,0.46354520320892336,-0.4760892987251282,-0.16003629565238954,-0.45199328660964968,-0.2756688892841339,0.9197472929954529,-0.2721948027610779,0.45688682794570925]},{"type":"node","weights":[-0.8284018635749817,-0.0009012017399072647,-0.031062228605151178,-0.21360982954502107,0.6806336641311646,-0.23954446613788606,1.0727181434631348,0.7087163329124451,-0.2638138234615326,-0.6102178692817688,0.8343690633773804,-0.04989148676395416,-0.1813613921403885,0.4509524703025818,0.6070461273193359,-0.6267373561859131,-0.09815926849842072]}]}]}