{"type":"network","input_size":18,"output_size":3,"layers":[{"type":"layer","input_size":18,"output_size":16,"transfer":"relu","nodes":[{"type":"node","weights":[0.5459350943565369,0.3156577944755554,0.6484971642494202,0.9603045582771301,-0.1101372018456459,0.398055762052536,0.556271493434906,-0.06125752627849579,0.18406859040260316,0.47801879048347475,0.11143163591623306,0.23481330275535584,0.2916392982006073,0.4543972313404083,-0.3110044002532959,0.6679044961929321,0.6979842782020569,0.9285073280334473,0.9609299898147583]},{"type":"node","weights":[0.9799646735191345,-0.06911473721265793,0.3691299557685852,0.7752482295036316,0.8634602427482605,0.6629714369773865,0.1153649091720581,0.4372318387031555,0.44619953632354739,0.35618528723716738,0.36688607931137087,-0.14923620223999024,-0.054940834641456607,0.12606287002563477,-0.011464273557066918,0.8299998044967651,0.4784684181213379,0.5269284248352051,0.2402171492576599]},{"type":"node","weights":[0.6901803612709045,0.11571895331144333,0.31296414136886599,0.4735247492790222,0.31769031286239626,0.03226359561085701,0.9777869582176209,0.007209947798401117,0.8279125094413757,0.3926902115345001,0.5097247362136841,0.005382150411605835,0.7381315231323242,0.32255589962005618,0.5519005656242371,0.42799922823905947,0.25427713990211489,0.1758837103843689,-0.27781370282173159]},{"type":"node","weights":[0.3896162807941437,-0.08164776861667633,0.3784448802471161,0.02216644585132599,0.7609633803367615,-0.860551118850708,0.3337936997413635,-0.4381202757358551,0.45008379220962527,-0.613368570804596,0.3400483727455139,0.13024726510047913,0.3760887384414673,0.6471930146217346,0.37160786986351015,0.10214652121067047,0.3355015218257904,-0.2526209354400635,-0.10039793699979782]},{"type":"node","weights":[0.2096812129020691,-0.5969794988632202,0.13285179436206819,0.747077226638794,0.14310061931610108,0.0738997757434845,0.1306098997592926,0.7403419017791748,0.12048810720443726,0.07931707799434662,0.17599354684352876,-0.5240739583969116,0.09348205476999283,0.05645281821489334,0.12822698056697846,-0.6221399903297424,0.12648992240428925,0.7765988111495972,-0.5616251826286316]},{"type":"node","weights":[0.5453967452049255,0.5061705112457275,0.4505842924118042,0.37395939230918887,0.9901713132858276,0.0323604978621006,0.8136476278305054,0.6068364977836609,-0.14979922771453858,0.3475789725780487,0.5310216546058655,-0.3730911910533905,0.2490265965461731,-0.12279626727104187,0.39733603596687319,0.47026368975639346,0.8606231808662415,0.6727474331855774,-0.11135244369506836]},{"type":"node","weights":[0.18498606979846955,0.6536528468132019,0.3493271768093109,0.4466879069805145,0.4393965005874634,-0.19553805887699128,1.03160560131073,0.2213476598262787,0.18252500891685487,0.4771535098552704,0.0731658861041069,0.9228947162628174,0.30030423402786257,0.19952461123466493,0.8307618498802185,0.13748788833618165,0.8457044959068298,0.4318617284297943,-0.6915557980537415]},{"type":"node","weights":[-0.12379223853349686,0.08866584300994873,0.572506844997406,-0.2678230106830597,0.049167949706315997,0.05812983214855194,0.4438355267047882,1.081254005432129,0.4575866758823395,0.15682312846183778,-0.0230607520788908,-0.057283833622932437,0.5371476411819458,-0.2800070643424988,-0.19400528073310853,0.991651713848114,0.3093911409378052,0.11313008517026901,0.5569383502006531]},{"type":"node","weights":[-0.223475381731987,0.9145810604095459,0.08652406185865402,1.0206221342086793,0.25015148520469668,0.23739585280418397,0.1534227877855301,0.7630237340927124,0.0042905439622700218,0.3722694218158722,0.2765341103076935,0.5719111561775208,0.5190575122833252,0.8201591968536377,-0.29432719945907595,0.6795293688774109,0.6717728972434998,0.8133280873298645,-0.6413496136665344]},{"type":"node","weights":[0.3210724890232086,0.12210103869438172,-0.4690062701702118,0.7066840529441834,0.3390461802482605,0.1665946990251541,0.04770086705684662,0.7398049235343933,0.03429752588272095,-0.09357000887393952,-0.09780871868133545,-0.02024173177778721,-0.06093784421682358,0.48179057240486147,0.4051228165626526,0.2750037610530853,0.08024764060974121,1.028877854347229,0.6495697498321533]},{"type":"node","weights":[-0.16233523190021516,0.6399233937263489,0.027564775198698045,0.6273467540740967,-0.3268967270851135,0.6402686834335327,0.0289326012134552,0.6091110110282898,-0.4993393123149872,0.6223167777061462,-0.015131820924580098,0.6430730223655701,-0.35789385437965395,0.6365403532981873,0.01719750091433525,0.6446959972381592,-0.1050979495048523,0.6415917277336121,-1.492156744003296]},{"type":"node","weights":[0.44005170464515688,0.45984259247779848,0.23636190593242646,0.33233842253685,-0.39428624510765078,0.08096050471067429,-0.17696577310562135,0.8144379258155823,-0.1376163512468338,0.5129492282867432,1.1396561861038209,0.14956916868686677,0.7567212581634522,-0.06210058555006981,0.2575003504753113,0.28252923488616946,0.1969178318977356,0.6436520218849182,0.16307657957077027]},{"type":"node","weights":[-0.07222660630941391,0.45030713081359866,-0.004807703662663698,0.4996074438095093,0.15746574103832246,0.08609364926815033,0.6693112254142761,0.41276806592941286,-0.5256686210632324,0.8695698976516724,0.1314864158630371,0.4538455307483673,-0.5919171571731567,0.7126692533493042,0.2524525821208954,0.5944384336471558,-0.17266590893268586,0.04156447574496269,0.46163785457611086]},{"type":"node","weights":[0.30324047803878786,0.5135406255722046,-0.8391205668449402,0.49393218755722048,0.3829522728919983,-0.12585367262363435,-0.45825934410095217,0.44616684317588808,0.47181981801986697,0.012499387376010418,-0.09119059890508652,0.42323029041290285,0.33145764470100405,0.4059567153453827,0.32822948694229128,0.7713547348976135,-0.5182687044143677,0.4562166929244995,-0.24665100872516633]},{"type":"node","weights":[0.2809734344482422,0.36419373750686648,-0.023681286722421647,0.11012573540210724,-0.10243958234786987,0.7959821820259094,0.4824126958847046,0.35766616463661196,-0.09475604444742203,0.15963223576545716,0.17318464815616609,-0.3135538101196289,-0.162957102060318,0.30476248264312746,0.4078836143016815,0.8383988738059998,0.4153638184070587,0.6277139186859131,-0.5423557758331299]},{"type":"node","weights":[0.10136856138706207,0.41553565859794619,-0.158103346824646,-0.03216245025396347,0.39649683237075808,-0.17990641295909882,0.6551750302314758,-0.3569701611995697,-0.1346273273229599,-0.20943918824195863,0.3308156132698059,-0.08645662665367127,0.21504288911819459,-0.11939646303653717,0.42327576875686648,0.014869521372020245,0.8271791338920593,-0.07963456213474274,0.8911359906196594]}]},{"type":"layer","input_size":16,"output_size":16,"transfer":"relu","nodes":[{"type":"node","weights":[0.5402148365974426,-0.06205647438764572,0.550831139087677,-0.23739521205425263,0.06985896825790405,-0.18302185833454133,0.057529300451278689,0.31962713599205019,-0.17289027571678163,0.5702760815620422,0.7507413625717163,0.03183579444885254,-0.07972397655248642,-0.28146886825561526,-0.31402310729026797,0.04130836948752403,0.9153218269348145]},{"type":"node","weights":[0.12450787425041199,0.03728298097848892,-0.5569164752960205,-0.17731106281280518,-0.05494905263185501,-0.4308362603187561,-0.5330862402915955,-0.47672170400619509,-0.44336768984794619,0.03742477670311928,0.9086242318153381,0.8592124581336975,0.5566000938415527,0.8780373334884644,0.08644255995750427,0.11657541245222092,0.8477616906166077]},{"type":"node","weights":[-0.316718727350235,0.14516688883304597,-0.06012841686606407,0.21267277002334596,-0.027027947828173639,-0.26670461893081667,0.6990631818771362,-0.11254595965147019,-0.0036860560066998007,0.32852011919021609,-0.4314364194869995,0.663959264755249,-0.10951828211545944,0.47413864731788638,0.5296378135681152,-0.22811417281627656,0.3512977957725525]},{"type":"node","weights":[-0.4467257857322693,0.20025384426116944,-0.0023446353152394296,-0.409656286239624,-0.06830095499753952,0.08844850212335587,0.6210877895355225,-0.2585919499397278,-0.17154256999492646,0.48340335488319399,0.6254241466522217,-0.5483734011650086,0.4974402189254761,0.4595334827899933,0.4661986827850342,-0.22074909508228303,0.20092114806175233]},{"type":"node","weights":[-0.10465215146541596,-0.15329188108444215,0.2020612210035324,0.5813276171684265,0.8922789096832275,0.3459263741970062,-0.44374126195907595,0.18727436661720277,0.28352591395378115,-0.2737385034561157,0.7082632184028626,-0.2796255648136139,0.008286568336188794,0.4469698965549469,0.2569856345653534,0.34562787413597109,0.27026230096817019]},{"type":"node","weights":[0.19353137910366059,-0.4294673502445221,-0.5873758792877197,0.1284295916557312,0.09124789386987686,0.029936974868178369,0.43212899565696719,0.23225043714046479,-0.2961229681968689,0.29979604482650759,1.1597211360931397,-0.059506356716156009,0.2341068834066391,0.018214041367173196,-0.15185457468032838,0.8416022658348084,0.2942517101764679]},{"type":"node","weights":[0.28885433077812197,-0.014423780143260956,0.18647140264511109,1.0768262147903443,1.1386168003082276,-0.42524561285972597,0.6419386267662048,-0.6794978380203247,0.048696182668209079,-0.6128263473510742,0.2793589234352112,0.11324064433574677,-0.03580928593873978,0.06062354892492294,-0.4895513653755188,0.167732372879982,0.12671823799610139]},{"type":"node","weights":[-0.6194108128547669,0.12901140749454499,0.6730511784553528,0.09690247476100922,0.3383212685585022,0.5773581266403198,0.6673145890235901,-0.10437824577093125,-0.034737590700387958,-0.27829670906066897,-0.7425361275672913,-0.256754606962204,-0.25408485531806948,-0.25078284740448,0.8108388781547546,0.33074241876602175,0.06674448400735855]},{"type":"node","weights":[-0.18050464987754823,-0.3013092875480652,0.47831377387046816,0.24461103975772859,-0.0046326881274580959,0.0691613033413887,-0.22370968759059907,0.11417370289564133,0.616161048412323,0.49865081906318667,0.5918518900871277,-0.030838685110211374,-0.038919322192668918,0.2715390622615814,-0.167700856924057,0.23283928632736207,0.05576614663004875]},{"type":"node","weights":[-0.08685491979122162,-0.0049679032526910309,-0.2968144416809082,0.1511922925710678,-0.16556520760059358,-0.230959951877594,-0.25561419129371645,0.20104122161865235,0.7407587766647339,0.8103453516960144,0.2640213072299957,0.08213083446025849,0.6534643769264221,-0.08995931595563889,-0.06844288855791092,-0.16409672796726228,0.7436052560806274]},{"type":"node","weights":[-0.13382762670516969,0.051398757845163348,-0.08114580065011978,0.0284733884036541,0.30691859126091006,-0.004929337650537491,-0.2720617651939392,1.0162116289138795,0.017326822504401208,-0.360201358795166,0.6359339356422424,0.8304232954978943,-0.6868420839309692,-0.08044403046369553,0.6801464557647705,-0.24712663888931275,0.45594489574432375]},{"type":"node","weights":[-0.39952927827835085,0.1272614747285843,0.06110168993473053,0.4489121735095978,0.18245072662830354,-0.07442612946033478,0.629223644733429,0.2287847101688385,-0.3180231750011444,0.4539209306240082,0.1670188158750534,0.1674763262271881,-0.2571134865283966,0.11915276199579239,-0.014732868410646916,0.18024642765522004,0.23670634627342225]},{"type":"node","weights":[-0.04291289672255516,-0.03898699954152107,0.10353651642799378,-0.2686118185520172,0.34588417410850527,-0.0839293897151947,-0.1605403870344162,0.3028371036052704,-0.14733894169330598,-0.24371956288814546,0.9973056316375732,0.3007846176624298,-0.2945060729980469,0.5195912718772888,0.5517995953559876,0.6673521995544434,0.9102424383163452]},{"type":"node","weights":[-0.415851891040802,0.34692275524139407,0.23052392899990083,-0.10612192004919052,0.7201262712478638,0.0020384392701089384,0.0060643525794148449,0.1064600944519043,-0.19342544674873353,0.2002258151769638,0.23391075432300569,-0.275684118270874,0.48812416195869448,0.38162294030189516,0.09655920416116715,-0.054995231330394748,0.2344958484172821]},{"type":"node","weights":[0.45630353689193728,-0.34070128202438357,0.056521348655223849,-0.36358845233917239,0.40428316593170168,-0.07435839623212815,0.553587019443512,-0.2892600893974304,0.9915260672569275,-0.09909184277057648,1.2115039825439454,-0.011358282528817654,0.340375691652298,0.33073776960372927,0.5383501648902893,-0.6967408657073975,-0.33692458271980288]},{"type":"node","weights":[0.057266779243946078,-0.3723365068435669,-0.031830620020627978,0.31383851170539858,0.23772931098937989,0.04614129662513733,-0.2051708698272705,0.17097628116607667,-0.16864542663097382,0.6784287095069885,-0.1451374739408493,0.2942503094673157,0.45154085755348208,0.22908338904380799,0.0632605105638504,0.6937915086746216,0.7914798259735107]}]},{"type":"layer","input_size":16,"output_size":3,"transfer":"relu","nodes":[{"type":"node","weights":[-0.06041136011481285,-1.3372246026992798,0.5304571390151978,-1.0399785041809083,-0.31892046332359316,-0.6948572397232056,0.019559450447559358,0.8119348287582398,0.013684315606951714,-0.0934358462691307,-0.23582497239112855,0.3429405093193054,-0.30501583218574526,0.14570216834545136,-0.42530709505081179,0.21703292429447175,0.5810819268226624]},{"type":"node","weights":[-0.10121586173772812,0.006421698722988367,0.42747363448143008,0.15029479563236237,-0.46110963821411135,-0.400704026222229,-1.1229991912841797,-0.2853887975215912,0.371101438999176,0.4835682511329651,-0.47294163703918459,-0.1389056146144867,-0.48221728205680849,-0.28944435715675356,0.931988537311554,-0.23774810135364533,0.4608871340751648]},{"type":"node","weights":[-0.8890396952629089,0.21812401711940766,-0.039413731545209888,-0.16232536733150483,0.6860246062278748,-0.21161358058452607,1.0971726179122925,0.7405468225479126,-0.29126572608947756,-0.6397429704666138,0.8563254475593567,-0.06291607767343521,-0.19112704694271089,0.4505634903907776,0.5571356415748596,-0.6315178275108337,-0.10940443724393845]}]}]}