{"type":"network","input_size":18,"output_size":3,"layers":[{"type":"layer","input_size":18,"output_size":16,"transfer":"relu","nodes":[{"type":"node","weights":[0.6788206100463867,0.14070740342140199,0.6774475574493408,0.8216159343719482,-0.3367123007774353,0.8436014652252197,0.6614601016044617,-0.01628953032195568,0.45769718289375307,0.1683511584997177,0.02058182656764984,0.22578543424606324,0.19497741758823396,0.24806247651576997,0.09139283746480942,0.7869188785552979,0.6254498362541199,0.9317009449005127,0.9397833347320557]},{"type":"node","weights":[0.9207484722137451,0.08824785053730011,0.6583839654922485,0.7652169466018677,0.7395439147949219,0.9510829448699951,0.04627005010843277,0.2441042959690094,0.6513522863388062,0.4572041928768158,0.15881521999835969,-0.04836730286478996,-0.056899502873420718,0.3931264579296112,-0.13504807651042939,0.8465402126312256,0.32087868452072146,0.6714357137680054,0.3227905333042145]},{"type":"node","weights":[0.9117863774299622,0.14698858559131623,0.7841531038284302,0.4207194149494171,0.013467548415064812,0.24816006422042848,0.9711107611656189,-0.3272615075111389,0.9973022937774658,0.024000242352485658,0.7146348357200623,0.002269048010930419,0.5688918828964233,0.21270497143268586,0.6952812075614929,0.4107133746147156,0.19579096138477326,0.08187275379896164,-0.40764546394348147]},{"type":"node","weights":[0.22784645855426789,-0.0517159067094326,0.34984758496284487,0.32591429352760317,0.5710616111755371,-0.04298679903149605,0.25564366579055788,-0.06280428916215897,0.7443711161613464,-0.3820525109767914,0.1086958721280098,-0.17286823689937592,0.8384455442428589,0.5603998899459839,0.6018847823143005,0.46588027477264407,-0.10177044570446015,0.005691079422831535,0.10305380076169968]},{"type":"node","weights":[0.7531739473342896,0.3746320307254791,0.08680164813995362,0.4173983335494995,0.06457868963479996,0.06210451200604439,0.23181642591953278,-0.14337880909442902,0.41662174463272097,-0.2650650143623352,0.5045638084411621,-0.24711404740810395,0.05364644154906273,0.265540212392807,0.15213246643543244,0.28089621663093569,-0.0029322034679353239,0.3331655263900757,-0.13198630511760713]},{"type":"node","weights":[0.7163537740707398,0.6662964224815369,0.911103367805481,0.5676897764205933,0.5980197787284851,0.24396172165870667,0.6838524341583252,0.36002621054649355,0.012388717383146286,0.31885862350463869,0.700897753238678,-0.13770301640033723,0.5156260132789612,-0.05692339688539505,0.2703991234302521,0.49195313453674319,0.5508565902709961,0.7980915307998657,0.028252795338630678]},{"type":"node","weights":[0.28720954060554507,0.7457764744758606,0.5928438305854797,0.46963396668434145,-0.013360550627112389,0.06253519654273987,0.6998876929283142,0.48658955097198489,0.056290097534656528,0.3163694441318512,0.3220057785511017,0.6643933057785034,0.539567232131958,0.3031444251537323,0.6207869052886963,0.4091518521308899,0.5254257321357727,0.4107668101787567,-0.41783803701400759]},{"type":"node","weights":[0.06714721769094467,-0.009702480398118496,0.6389864683151245,-0.03490067273378372,-0.08392808586359024,0.12776687741279603,0.6768673062324524,0.446605384349823,0.912040114402771,-0.09710335731506348,0.32000690698623659,0.44166406989097597,0.20477111637592317,0.04261970520019531,-0.2788083851337433,0.729308545589447,-0.04053856432437897,0.11180225759744644,0.5445703864097595]},{"type":"node","weights":[-0.11159825325012207,0.9060669541358948,0.09091775864362717,0.9694812893867493,0.05193118005990982,0.7197805047035217,0.24262693524360658,0.6708596348762512,0.10142882168292999,-0.10965781658887863,0.5377485156059265,0.4246998131275177,0.3586086630821228,0.6148541569709778,0.045806482434272769,0.8635427951812744,0.41217607259750368,0.7563074827194214,-0.33702653646469118]},{"type":"node","weights":[0.49457502365112307,0.4293707013130188,0.11629772186279297,0.627539873123169,0.09651759266853333,0.07706427574157715,-0.00233293604105711,0.0647139921784401,0.46936336159706118,-0.40777161717414858,0.3263459801673889,-0.39281851053237917,0.2626008689403534,0.21434824168682099,0.1039830818772316,0.4373830556869507,0.1030881255865097,0.59592205286026,0.6730031371116638]},{"type":"node","weights":[-0.013051602058112622,0.6778113842010498,0.024990184232592584,0.4976899325847626,-0.223425030708313,0.6838660836219788,0.022792654111981393,0.5940930247306824,-0.3380064368247986,0.5597965717315674,0.02445501834154129,0.5941620469093323,-0.2237866073846817,0.6831576824188232,0.024249212816357614,0.49553900957107546,-0.011551883071660996,0.6759359836578369,-1.763951063156128]},{"type":"node","weights":[-0.04119280353188515,0.5079513192176819,0.26638901233673098,0.17677956819534303,-0.14462198317050935,0.49402108788490298,0.289043664932251,0.36574241518974306,0.395254522562027,0.4617670476436615,0.7815306186676025,0.06889234483242035,0.5571098327636719,0.11781299114227295,0.37262895703315737,-0.00992986187338829,-0.0050709424540400509,0.8514565825462341,0.16497454047203065]},{"type":"node","weights":[-0.05604834109544754,0.505656898021698,0.41725096106529238,0.4669942259788513,-0.1390172690153122,0.3785095810890198,0.598044216632843,0.17603465914726258,-0.19694794714450837,0.6630569100379944,0.20799937844276429,0.24540603160858155,-0.0018013609806075693,0.6117793321609497,0.28161850571632388,0.7341872453689575,-0.46348679065704348,-0.050457604229450229,0.6836304664611816]},{"type":"node","weights":[0.6006644368171692,0.6951314210891724,0.09654763340950012,0.9297199249267578,0.09637751430273056,-0.14310771226882935,0.08214946836233139,0.09670674800872803,0.4873374402523041,0.032043181359767917,-0.2807122766971588,0.3648238778114319,0.4006313681602478,0.4070289134979248,0.08408797532320023,0.8354573249816895,-0.41122376918792727,0.2369660884141922,0.4231666624546051]},{"type":"node","weights":[0.09230343997478485,0.24512813985347749,0.1497061848640442,0.25856271386146548,-0.25227633118629458,0.7111078500747681,0.6352952122688294,0.27850377559661868,0.2204279601573944,0.5585793256759644,0.15554949641227723,-0.04998643696308136,0.044204819947481158,0.6835736036300659,0.37255826592445376,0.5677966475486755,0.18062303960323335,0.5091832876205444,-0.27502334117889407]},{"type":"node","weights":[0.19134771823883058,0.2552546560764313,0.03300933912396431,0.13239268958568574,0.14994876086711884,-0.10953188687562943,0.6436223387718201,-0.1720435917377472,-0.059233710169792178,-0.28689754009246828,0.3412889242172241,-0.2317037582397461,0.4145219922065735,0.01221246737986803,0.5335862040519714,0.011732236482203007,0.7357045412063599,-0.26694661378860476,0.5347707271575928]}]},{"type":"layer","input_size":16,"output_size":16,"transfer":"relu","nodes":[{"type":"node","weights":[0.5375616550445557,-0.14845992624759675,0.692330002784729,-0.13057008385658265,0.3498649001121521,-0.14545518159866334,-0.008585031144320965,0.31228283047676089,-0.22346767783164979,0.5852845311164856,0.36755043268203738,0.0003322878619655967,-0.1009366437792778,-0.3258252441883087,-0.2355688512325287,0.13369570672512055,0.8143631815910339]},{"type":"node","weights":[0.40840107202529909,-0.06813885271549225,-0.5482982993125916,-0.26063987612724306,-0.06481717526912689,-0.21570567786693574,-0.06437418609857559,-0.3551997244358063,-0.14255507290363313,-0.11241572350263596,0.7049828171730042,0.5247975587844849,0.673287570476532,0.7196494936943054,0.316822350025177,0.10783646255731583,0.993552029132843]},{"type":"node","weights":[-0.18587613105773927,0.13654842972755433,-0.05065043643116951,0.3448432385921478,0.22163331508636475,-0.2609294354915619,0.5593177080154419,0.1147969663143158,-0.19777829945087434,0.09793957322835922,-0.4366821050643921,0.5292040705680847,-0.171162411570549,0.5392786264419556,0.5059192776679993,-0.09057903289794922,0.5192679762840271]},{"type":"node","weights":[-0.30452290177345278,0.21819618344306947,-0.13745838403701783,0.026952391490340234,0.08994274586439133,-0.02091318927705288,0.19764365255832673,-0.09521795064210892,-0.07760076224803925,0.5122966170310974,0.7636900544166565,-0.1878412961959839,0.5288732647895813,0.4524703919887543,0.02507474645972252,-0.18693356215953828,0.5761939287185669]},{"type":"node","weights":[-0.22452886402606965,-0.19181351363658906,0.3265990912914276,0.5395047068595886,0.4666678011417389,0.24804864823818208,-0.3500727713108063,-0.003169562201946974,0.47503408789634707,-0.01617138460278511,0.7849921584129334,-0.111918605864048,0.10131531208753586,0.402459055185318,0.19620703160762788,0.19535043835639954,0.06371450424194336]},{"type":"node","weights":[0.14333494007587434,-0.22368203103542329,-0.4247502088546753,0.08907973766326904,0.04963812232017517,-0.03771848604083061,0.30956268310546877,0.3635827302932739,-0.1310686469078064,0.4621044397354126,1.0936634540557862,0.26352378726005556,0.22885344922542573,-0.028635570779442788,-0.17508994042873383,0.49537786841392519,0.20777834951877595]},{"type":"node","weights":[-0.09238924831151962,0.40374666452407839,-0.0020875197369605304,0.682501494884491,0.6181553602218628,-0.21241694688796998,0.4041390120983124,-0.3853479325771332,0.06029858812689781,-0.07353026419878006,0.5978130102157593,0.3519544303417206,0.19359633326530457,-0.03749978914856911,-0.05826041102409363,0.23761047422885896,-0.005883204750716686]},{"type":"node","weights":[-0.4261927604675293,0.07320237904787064,0.9184341430664063,0.14682240784168244,0.08520670980215073,0.6067556738853455,0.6225395798683167,0.015654321759939195,0.0662095919251442,-0.17415380477905274,-0.42101728916168215,-0.1316433548927307,-0.1466713398694992,-0.2371811866760254,0.671921968460083,0.3207382559776306,-0.014364128932356835]},{"type":"node","weights":[-0.05719621106982231,-0.32573723793029787,0.5641483664512634,0.35748130083084109,0.2620409429073334,0.19843316078186036,-0.3198830485343933,0.28034767508506777,0.42097723484039309,0.4051336348056793,0.3486935794353485,-0.08101692795753479,-0.025747304782271386,0.28480783104896548,-0.15286394953727723,0.4268285632133484,0.2267850637435913]},{"type":"node","weights":[-0.12864293158054353,0.08311810344457627,-0.4543060064315796,0.20637714862823487,0.25847047567367556,-0.2480781525373459,-0.3539915978908539,0.2928214371204376,0.581215500831604,0.5528963804244995,0.07524114847183228,-0.10479175299406052,0.5944746732711792,-0.001034566550515592,0.10631779581308365,-0.09037093073129654,0.8767883777618408]},{"type":"node","weights":[-0.14965593814849854,0.018681559711694719,0.04423762485384941,0.46638646721839907,0.21068325638771058,-0.2641470432281494,-0.2798575162887573,0.6285752654075623,-0.04695724695920944,-0.12817859649658204,0.9905994534492493,0.4304462671279907,-0.1948191523551941,-0.07738252729177475,0.7455402612686157,-0.11010102927684784,0.5411881804466248]},{"type":"node","weights":[-0.3135499954223633,0.04100765660405159,0.1865493506193161,0.45272356271743777,0.09959316998720169,-0.08666892349720001,0.5493652820587158,0.22613723576068879,-0.3012680113315582,0.5850059390068054,0.30659019947052,0.21023274958133698,-0.20662353932857514,0.10898754745721817,-0.10264080762863159,0.1969388723373413,0.21700520813465119]},{"type":"node","weights":[0.018631257116794587,-0.04540792852640152,0.08464068919420243,-0.20891422033309937,0.3619902729988098,-0.17500653862953187,-0.13374435901641847,0.21793416142463685,-0.10182245820760727,-0.18394862115383149,0.95293790102005,0.325429230928421,-0.3234351873397827,0.5029049515724182,0.5739588141441345,0.5769869089126587,0.9239577054977417]},{"type":"node","weights":[-0.38347765803337099,0.3907906115055084,0.3844870924949646,-0.058017075061798099,0.5523687601089478,-0.05097661167383194,0.036081165075302127,0.09435275942087174,-0.18330678343772889,0.28692370653152468,0.20982465147972108,-0.21375766396522523,0.4997155964374542,0.3673265874385834,0.03417561575770378,-0.10553501546382904,0.14770233631134034]},{"type":"node","weights":[0.24859604239463807,-0.2940950393676758,-0.09837838262319565,-0.4156091511249542,0.39870163798332217,-0.13395623862743379,0.4167480170726776,-0.3068087697029114,0.8347321152687073,0.04092013090848923,1.449794054031372,-0.08360543847084046,0.17927131056785584,0.4532815217971802,0.6207594275474548,-0.6397280693054199,-0.08651850372552872]},{"type":"node","weights":[0.10652361810207367,-0.45892900228500368,0.11967271566390991,0.5000253319740295,0.5991449952125549,0.02800413779914379,-0.2775207757949829,0.21556714177131654,-0.18583206832408906,0.6012098789215088,-0.66676265001297,0.24853479862213136,0.39626771211624148,0.24084672331809998,0.09373316913843155,0.7928277850151062,0.7168808579444885]}]},{"type":"layer","input_size":16,"output_size":3,"transfer":"relu","nodes":[{"type":"node","weights":[0.2201164811849594,-0.757594108581543,0.4260993003845215,-0.6445478796958923,-0.28137174248695376,-0.6345363855361939,-0.1529562622308731,0.7984189987182617,0.16207702457904817,-0.2290598750114441,-0.5687335729598999,0.18240761756896974,-0.46504780650138857,0.023293504491448404,-1.2787631750106812,0.9463305473327637,0.8366042375564575]},{"type":"node","weights":[-0.2742132246494293,0.24060815572738648,0.5766593813896179,0.08998049050569534,-0.29080259799957278,-0.37618643045425417,-0.30691587924957278,-0.2547411620616913,0.16129231452941895,0.51136314868927,-0.09810563176870346,-0.43977612257003786,0.005736975930631161,-0.10871700942516327,0.6959558129310608,-0.051276545971632007,0.6685199737548828]},{"type":"node","weights":[-0.19707226753234864,-0.7121226787567139,0.10638868063688278,-0.43887701630592348,0.3156302869319916,-0.25865814089775088,0.26205870509147646,0.7596331238746643,0.018810324370861055,-0.5282713174819946,0.050605520606040958,0.10119205713272095,-0.29351645708084109,0.23998312652111054,0.1891779601573944,-0.25375598669052126,-0.035207584500312808]}]}]}