{"type":"network","input_size":18,"output_size":3,"layers":[{"type":"layer","input_size":18,"output_size":16,"transfer":"relu","nodes":[{"type":"node","weights":[0.9207333922386169,-0.28112202882766726,0.1783534288406372,0.9655399918556213,0.4322601556777954,0.8653705716133118,0.7293014526367188,0.5940214991569519,0.49045923352241518,0.5099571347236633,0.01916620135307312,-0.17476168274879456,0.050144556909799579,0.4657951593399048,0.581896960735321,0.6046375036239624,0.7005369067192078,0.4452066421508789,0.43339043855667117]},{"type":"node","weights":[0.9895347356796265,-0.20154227316379548,0.47339165210723879,0.9874678254127502,0.7764946818351746,0.8872318267822266,-0.48201656341552737,0.3781396150588989,0.344569593667984,0.8233805894851685,0.0931825041770935,-0.12614862620830537,-0.030552785843610765,0.6857709288597107,-0.39847707748413088,0.8985186815261841,0.5438879728317261,0.21605952084064485,0.1149274930357933]},{"type":"node","weights":[1.0970646142959595,-0.05745108425617218,0.5914897322654724,0.2577517628669739,0.37446925044059756,0.35625362396240237,0.3704465329647064,-0.3854953348636627,0.6499183177947998,0.4099535644054413,0.8238334655761719,0.1395486295223236,0.9921475052833557,0.41384202241897585,0.5989144444465637,0.37158268690109255,0.8413968086242676,-0.4068695902824402,-0.070769764482975]},{"type":"node","weights":[0.23568031191825868,-0.6008158922195435,-0.005814975593239069,0.48752152919769289,0.5261386632919312,0.017456788569688798,0.06697326898574829,0.17296050488948823,0.2150494009256363,-0.1394159346818924,0.18473711609840394,-0.308353453874588,0.9353476762771606,0.24694985151290894,0.25943711400032046,0.7732267379760742,-0.04838362708687782,0.09429098665714264,0.12926067411899568]},{"type":"node","weights":[0.03816650062799454,-0.0957682803273201,-0.27892592549324038,0.34336093068122866,0.22044390439987184,-0.03590284660458565,0.024569107219576837,-0.2825573682785034,0.06998412311077118,-0.19638630747795106,0.5483481884002686,-0.8173446655273438,-0.21901585161685944,0.4376225769519806,-0.32293298840522768,0.6977531313896179,0.42581185698509219,-0.23693890869617463,-0.15346814692020417]},{"type":"node","weights":[0.8030808568000794,-0.13371127843856812,0.8665392994880676,0.5422030687332153,1.2875925302505494,0.11545296013355255,0.7774369716644287,0.718407392501831,-0.3380740284919739,0.4616524875164032,0.9016176462173462,-0.4854922592639923,0.5651868581771851,0.007389370817691088,0.2928621470928192,0.522178590297699,0.7551348209381104,0.44909384846687319,-0.10453879833221436]},{"type":"node","weights":[0.23207181692123414,0.5113140940666199,0.3670528531074524,0.8401240110397339,-0.027724063023924829,0.16379258036613465,0.17407366633415223,0.6078792810440064,-0.46305954456329348,0.33398130536079409,0.4491918087005615,0.5526754856109619,0.6920393705368042,0.34381282329559328,0.11283312737941742,0.8258712291717529,0.4557989239692688,0.21169127523899079,-0.006020066794008017]},{"type":"node","weights":[-0.17890077829360963,-0.15091928839683534,0.8161969184875488,0.24954961240291596,0.16147109866142274,0.04753917083144188,0.3995116353034973,0.669126570224762,0.8344258069992065,0.14917796850204469,0.3402644395828247,0.23974405229091645,0.22900991141796113,0.10056153684854508,-0.7244268655776978,0.7698681950569153,0.30236753821372988,-0.04600030928850174,0.717845618724823]},{"type":"node","weights":[0.20755009353160859,0.533171534538269,-0.2593374252319336,0.9280489087104797,0.34025877714157107,0.6260924339294434,0.32672110199928286,1.1146366596221924,0.03979672119021416,0.27356091141700747,0.25614264607429507,0.327440470457077,0.5409706234931946,0.17067480087280274,0.24798941612243653,0.9070953726768494,0.893909215927124,0.5284197330474854,-0.6215220093727112]},{"type":"node","weights":[0.5248955488204956,0.34501227736473086,-0.18146324157714845,0.6866400241851807,-0.08069586008787155,0.43332767486572268,-0.5318529605865479,0.4827829599380493,-0.5345208048820496,0.20611931383609773,0.007862649857997895,-0.13662955164909364,0.11744939535856247,0.1962468922138214,-0.23950974643230439,0.7404296398162842,0.0963081642985344,0.6116247773170471,1.0801469087600709]},{"type":"node","weights":[0.042839061468839648,-0.8158198595046997,-0.3275250196456909,0.7005705237388611,0.028171734884381295,0.543656051158905,-0.40336912870407107,0.5349780917167664,0.08050823211669922,-0.2876529097557068,-0.33928072452545168,0.5896896123886108,-0.019361471757292749,0.5732115507125855,-0.4216095209121704,0.6402382850646973,0.3077876567840576,-0.41781705617904665,-0.5987055897712708]},{"type":"node","weights":[0.3943307101726532,-0.06390789151191712,-0.04667484760284424,0.37797847390174868,-0.10548118501901627,0.7700513005256653,-0.2191619724035263,0.772908091545105,-0.0036909463815391065,0.730131983757019,1.064058542251587,-0.054020147770643237,0.6886255741119385,0.09453252702951431,0.5187464356422424,0.05824661627411842,0.2218349725008011,0.2808408737182617,-0.03769809380173683]},{"type":"node","weights":[-0.22145332396030427,0.45790165662765505,-0.1373143047094345,0.4466593563556671,0.23596853017807008,0.6148021221160889,0.5190086960792542,0.16866359114646913,-0.3226167857646942,1.1271997690200806,0.07291948050260544,0.8395010232925415,-0.06514795869588852,0.947468101978302,0.15274454653263093,0.7634308934211731,-0.23572397232055665,0.027616828680038453,0.3636704683303833]},{"type":"node","weights":[0.9725781679153442,-0.002721470082178712,-0.4241226017475128,0.542598307132721,0.7029585838317871,-0.23333393037319184,-0.1080537959933281,0.3272272050380707,0.15561816096305848,-0.04265554994344711,0.247349351644516,0.26379239559173586,0.35198527574539187,0.15826664865016938,0.30368083715438845,1.0738060474395753,0.03617505729198456,-0.13890305161476136,0.3496192693710327]},{"type":"node","weights":[0.11994628608226776,-0.028620317578315736,-0.30065488815307619,0.3852022588253021,-0.12732383608818055,0.8771640658378601,0.13786233961582185,0.2522455155849457,0.6369081139564514,0.1327495574951172,0.3980276584625244,-0.21422715485095979,0.043113138526678088,0.5800437331199646,0.07368920743465424,0.5348858833312988,0.641760528087616,-0.0589846596121788,-0.4963996410369873]},{"type":"node","weights":[0.0011973183136433364,0.11849373579025269,-0.4511885643005371,0.34442582726478579,0.38744500279426577,0.24326910078525544,0.25699034333229067,0.020452681928873063,-0.041454900056123736,-0.3592427372932434,0.24130333960056306,-0.1800425797700882,0.4102025032043457,-0.2132924497127533,0.36621204018592837,0.38859882950782778,1.0449066162109376,-0.44900041818618777,0.5261622667312622]}]},{"type":"layer","input_size":16,"output_size":16,"transfer":"relu","nodes":[{"type":"node","weights":[0.3857385218143463,0.07778939604759217,0.30015257000923159,-0.48228439688682558,-0.08891195803880692,-0.2488192319869995,-0.00794723816215992,0.1247769147157669,-0.38777604699134829,0.6105214953422546,0.638700008392334,-0.0859602689743042,-0.2029811292886734,-0.33946195244789126,-0.5321065187454224,-0.14115658402442933,1.0802903175354005]},{"type":"node","weights":[0.3629573583602905,0.04588305205106735,-0.803239643573761,-0.24184869229793549,0.16039079427719117,-0.3475169837474823,-0.34048840403556826,-0.42652904987335207,-0.030176520347595216,0.037340082228183749,-0.13677038252353669,0.24103769659996034,0.43674734234809878,0.7754601836204529,0.06489381194114685,0.04355471581220627,0.8139045238494873]},{"type":"node","weights":[-0.5622568726539612,0.32678815722465517,-0.12942028045654298,0.062272507697343829,0.1508096158504486,-0.5278868675231934,0.44275665283203127,-0.10432906448841095,-0.7316741943359375,0.4929562509059906,-0.08264592289924622,0.9044842720031738,-0.4517109990119934,0.45793190598487856,0.007291998248547316,-0.09493722766637802,0.7256625890731812]},{"type":"node","weights":[-0.4686933159828186,0.2092546820640564,-0.2634401321411133,0.1928785890340805,-0.14531151950359345,0.4500349760055542,0.08209612220525742,0.509285032749176,-0.3093700110912323,0.2563525140285492,0.5065935850143433,-0.38777583837509158,0.25271132588386538,0.1280340850353241,-0.14571012556552888,-0.5703385472297669,0.3585016131401062]},{"type":"node","weights":[-0.39360472559928896,-0.29485026001930239,-0.06341822445392609,0.3413712680339813,0.4501296579837799,-0.021554771810770036,-0.5813482999801636,-0.15741124749183656,0.3329649269580841,-0.047247812151908877,0.5526769161224365,-0.29741567373275759,-0.051570724695920947,0.31851819157600405,0.09070242941379547,0.15038982033729554,0.2684243619441986]},{"type":"node","weights":[0.05846334993839264,-0.1505860686302185,-0.8037313222885132,0.2775662839412689,0.008050847798585892,-0.13460610806941987,0.09108266979455948,0.15388613939285279,-0.5572631359100342,0.6515796184539795,1.045468807220459,0.227294459939003,0.63364577293396,-0.27582892775535586,-0.2272440642118454,0.44003963470458987,0.40462401509284975]},{"type":"node","weights":[-0.25970903038978579,0.28079670667648318,-0.34099772572517397,0.5659105777740479,0.5946065783500671,-0.47071555256843569,0.20367318391799928,-0.5000993013381958,-0.06535191833972931,-0.11477061361074448,0.38248559832572939,0.18706555664539338,0.028325647115707399,-0.08610578626394272,-0.16504761576652528,0.19153106212615968,0.1219310313463211]},{"type":"node","weights":[-0.10588975250720978,0.18865960836410523,0.2652449309825897,-0.04259873181581497,-0.5159991383552551,0.7331022620201111,0.1109216958284378,0.4649825394153595,0.07000746577978134,-0.06404156982898712,-0.6734734177589417,-0.6781008839607239,-0.49077802896499636,-0.17612148821353913,0.25718364119529726,0.2035893350839615,0.4282292127609253]},{"type":"node","weights":[-0.1723128706216812,-0.34642475843429568,0.05566303804516792,0.09215705841779709,0.3390105366706848,0.46276503801345827,-0.3732779622077942,-0.07094211876392365,0.019918102771043779,0.2892281413078308,0.8946356773376465,-0.058542486280202869,-0.1663435399532318,0.26019543409347536,-0.7143471240997315,0.6218841671943665,0.2862452566623688]},{"type":"node","weights":[-0.16090910136699677,0.2639910578727722,-0.8401533365249634,-0.12328968197107315,0.1467951387166977,-0.7397843599319458,0.2981494069099426,0.24685990810394288,0.5390617251396179,0.941611647605896,-0.10130669921636582,-0.15437595546245576,0.9125373959541321,-0.46269726753234866,0.351414293050766,-0.1495652198791504,0.6401501297950745]},{"type":"node","weights":[-0.37725383043289187,0.18019047379493714,-0.12986642122268678,0.2725605368614197,0.07158955186605454,-0.3635537326335907,-0.35492902994155886,0.8702645897865295,-0.3178482949733734,-0.2114989459514618,0.6345335841178894,-0.009832191281020642,-0.5233994722366333,-0.2760200798511505,0.4343678653240204,-0.12124120444059372,0.5766364336013794]},{"type":"node","weights":[-0.14926889538764954,-0.5407690405845642,-0.6903128623962402,0.3579075038433075,-0.23121805489063264,-0.26697438955307009,0.3375619351863861,0.39826732873916628,0.05309806019067764,0.8698069453239441,0.3097895085811615,-0.19098499417304994,-0.36842063069343569,0.33166033029556277,-0.09718413650989533,0.09887658804655075,0.589278519153595]},{"type":"node","weights":[-0.1987563669681549,-0.36945486068725588,-0.1951618641614914,-0.16506819427013398,0.15796850621700288,-0.3877711594104767,-0.1426917165517807,0.15152543783187867,0.07022447884082794,-0.4846492111682892,0.6133748292922974,0.1312880963087082,-0.5214725732803345,0.08689868450164795,0.5846663117408752,0.8161636590957642,0.8224893808364868]},{"type":"node","weights":[-0.6083979606628418,0.08034314215183258,0.4610458314418793,-0.3724919855594635,0.37755492329597475,-0.5866318941116333,0.13169027864933015,-0.013854414224624634,-0.37411409616470339,0.43555691838264468,-0.054325103759765628,-0.5002176761627197,0.7131969928741455,0.1732458919286728,-0.3495338559150696,0.43682920932769778,0.7961843013763428]},{"type":"node","weights":[-0.05346059054136276,-0.32679104804992678,-0.10978004336357117,-0.4050827920436859,0.5608944892883301,-0.10337759554386139,0.17940400540828706,-0.5117433667182922,0.5126661658287048,0.08540644496679306,0.6951095461845398,-0.00031036027939990163,0.03591401129961014,0.13226647675037385,0.47406551241874697,-0.35888180136680605,-0.015958642587065698]},{"type":"node","weights":[0.17650116980075837,-0.6487547755241394,0.25410139560699465,0.0855490192770958,0.5430363416671753,-0.12614260613918305,-0.6791632771492004,0.38921910524368288,-0.023635325953364373,0.13661637902259828,0.3933459520339966,0.3383792042732239,-0.025973273441195489,-0.2347533255815506,0.21221435070037843,0.5945323705673218,0.6681731343269348]}]},{"type":"layer","input_size":16,"output_size":3,"transfer":"relu","nodes":[{"type":"node","weights":[0.05819089710712433,-1.2154064178466797,-1.2978026866912842,0.3196812570095062,-0.7061289548873901,-1.2882781028747559,-0.629301130771637,-0.27411794662475588,0.4215186834335327,-0.6445202827453613,-0.8811298608779907,-0.013305258937180043,-0.6549119353294373,-0.06435947120189667,-0.9408901929855347,0.5570116639137268,1.1469556093215943]},{"type":"node","weights":[-0.10082456469535828,-0.2850135266780853,-0.12073863297700882,0.24668246507644654,-0.6717677116394043,-0.7605324983596802,-0.6425893306732178,-0.7554253935813904,0.525486409664154,1.310434341430664,-0.39761894941329958,-1.444780945777893,-0.5341967344284058,-1.5216444730758668,-0.43713098764419558,-0.5391242504119873,0.6288400888442993]},{"type":"node","weights":[-1.4766958951950074,-0.1849188506603241,0.43180081248283389,-1.245551347732544,-0.07279256731271744,-0.6201812624931336,-0.1254197508096695,0.9300287961959839,-1.2263795137405396,-0.4455978274345398,-0.1564304381608963,-0.3376079499721527,-0.6367191076278687,0.31746765971183779,-0.041565608233213428,-1.17876136302948,0.5032035112380981]}]}]}